50,-5,0,-261
50,-5,0.5,-261
50,-5,1,-261
50,-5,1.5,-261
50,-5,2,-260
50,-5,2.5,-260
50,-5,3,-260
50,-5,3.5,-260
50,-5,4,-259
50,-5,4.5,-259
50,-5,5,-258
50,-5,5.5,-258
50,-5,6,-256
50,-5,6.5,-256
50,-5,7,-255
50,-5,7.5,-255
50,-5,8,-253
50,-5,8.5,-253
50,-5,9,-251
50,-5,9.5,-251
50,-5,10,-249
50,-5,10.5,-249
50,-5,11,-246
50,-5,11.5,-246
50,-5,12,-244
50,-5,12.5,-244
50,-5,13,-241
50,-5,13.5,-241
50,-5,14,-237
50,-5,14.5,-237
50,-5,15,-234
50,-5,15.5,-234
50,-5,16,-231
50,-5,16.5,-231
50,-5,17,-227
50,-5,17.5,-227
50,-5,18,-222
50,-5,18.5,-222
50,-5,19,-218
50,-5,19.5,-218
50,-5,20,-213
50,-5,20.5,-213
50,-5,21,-209
50,-5,21.5,-209
50,-5,22,-204
50,-5,22.5,-204
50,-5,23,-198
50,-5,23.5,-198
50,-5,24,-192
50,-5,24.5,-192
50,-5,25,-188
50,-5,25.5,-188
50,-5,26,-181
50,-5,26.5,-181
50,-5,27,-175
50,-5,27.5,-175
50,-5,28,-168
50,-5,28.5,-168
50,-5,29,-160
50,-5,29.5,-160
50,-5,30,-155
50,-5,30.5,-155
50,-5,31,-148
50,-5,31.5,-148
50,-5,32,-140
50,-5,32.5,-140
50,-5,33,-131
50,-5,33.5,-131
50,-5,34,-126
50,-5,34.5,-126
50,-5,35,-117
50,-5,35.5,-117
50,-5,36,-108
50,-5,36.5,-108
50,-5,37,-98
50,-5,37.5,-98
50,-5,38,-89
50,-5,38.5,-89
50,-5,39,-82
50,-5,39.5,-82
50,-5,40,-72
50,-5,40.5,-72
50,-5,41,-62
50,-5,41.5,-62
50,-5,42,-51
50,-5,42.5,-51
50,-5,43,-44
50,-5,43.5,-44
50,-5,44,-33
50,-5,44.5,-33
50,-5,45,-22
50,-5,45.5,-22
50,-5,46,-10
50,-5,46.5,-10
50,-5,47,1
50,-5,47.5,1
50,-5,48,9
50,-5,48.5,9
50,-5,49,21
50,-5,49.5,21
50,-5,50,34
50,-5,50.5,34
50,-5,51,47
50,-5,51.5,47
50,-5,52,56
50,-5,52.5,56
50,-5,53,69
50,-5,53.5,69
50,-5,54,83
50,-5,54.5,83
50,-5,55,96
50,-5,55.5,96
50,-5,56,111
50,-5,56.5,111
50,-5,57,120
50,-5,57.5,120
50,-5,58,135
50,-5,58.5,135
50,-5,59,150
50,-5,59.5,150
50,-5,60,165
50,-5,60.5,165
50,-4.5,0,-232
50,-4.5,0.5,-232
50,-4.5,1,-232
50,-4.5,1.5,-232
50,-4.5,2,-232
50,-4.5,2.5,-232
50,-4.5,3,-231
50,-4.5,3.5,-231
50,-4.5,4,-230
50,-4.5,4.5,-230
50,-4.5,5,-229
50,-4.5,5.5,-229
50,-4.5,6,-228
50,-4.5,6.5,-228
50,-4.5,7,-227
50,-4.5,7.5,-227
50,-4.5,8,-225
50,-4.5,8.5,-225
50,-4.5,9,-223
50,-4.5,9.5,-223
50,-4.5,10,-220
50,-4.5,10.5,-220
50,-4.5,11,-218
50,-4.5,11.5,-218
50,-4.5,12,-216
50,-4.5,12.5,-216
50,-4.5,13,-212
50,-4.5,13.5,-212
50,-4.5,14,-209
50,-4.5,14.5,-209
50,-4.5,15,-205
50,-4.5,15.5,-205
50,-4.5,16,-203
50,-4.5,16.5,-203
50,-4.5,17,-199
50,-4.5,17.5,-199
50,-4.5,18,-194
50,-4.5,18.5,-194
50,-4.5,19,-189
50,-4.5,19.5,-189
50,-4.5,20,-184
50,-4.5,20.5,-184
50,-4.5,21,-181
50,-4.5,21.5,-181
50,-4.5,22,-175
50,-4.5,22.5,-175
50,-4.5,23,-170
50,-4.5,23.5,-170
50,-4.5,24,-164
50,-4.5,24.5,-164
50,-4.5,25,-159
50,-4.5,25.5,-159
50,-4.5,26,-153
50,-4.5,26.5,-153
50,-4.5,27,-146
50,-4.5,27.5,-146
50,-4.5,28,-139
50,-4.5,28.5,-139
50,-4.5,29,-132
50,-4.5,29.5,-132
50,-4.5,30,-127
50,-4.5,30.5,-127
50,-4.5,31,-119
50,-4.5,31.5,-119
50,-4.5,32,-111
50,-4.5,32.5,-111
50,-4.5,33,-103
50,-4.5,33.5,-103
50,-4.5,34,-97
50,-4.5,34.5,-97
50,-4.5,35,-88
50,-4.5,35.5,-88
50,-4.5,36,-79
50,-4.5,36.5,-79
50,-4.5,37,-70
50,-4.5,37.5,-70
50,-4.5,38,-60
50,-4.5,38.5,-60
50,-4.5,39,-54
50,-4.5,39.5,-54
50,-4.5,40,-44
50,-4.5,40.5,-44
50,-4.5,41,-33
50,-4.5,41.5,-33
50,-4.5,42,-23
50,-4.5,42.5,-23
50,-4.5,43,-16
50,-4.5,43.5,-16
50,-4.5,44,-5
50,-4.5,44.5,-5
50,-4.5,45,6
50,-4.5,45.5,6
50,-4.5,46,17
50,-4.5,46.5,17
50,-4.5,47,29
50,-4.5,47.5,29
50,-4.5,48,37
50,-4.5,48.5,37
50,-4.5,49,50
50,-4.5,49.5,50
50,-4.5,50,62
50,-4.5,50.5,62
50,-4.5,51,75
50,-4.5,51.5,75
50,-4.5,52,84
50,-4.5,52.5,84
50,-4.5,53,97
50,-4.5,53.5,97
50,-4.5,54,111
50,-4.5,54.5,111
50,-4.5,55,125
50,-4.5,55.5,125
50,-4.5,56,139
50,-4.5,56.5,139
50,-4.5,57,149
50,-4.5,57.5,149
50,-4.5,58,163
50,-4.5,58.5,163
50,-4.5,59,178
50,-4.5,59.5,178
50,-4.5,60,193
50,-4.5,60.5,193
50,-4,0,-232
50,-4,0.5,-204
50,-4,1,-204
50,-4,1.5,-204
50,-4,2,-203
50,-4,2.5,-203
50,-4,3,-203
50,-4,3.5,-203
50,-4,4,-202
50,-4,4.5,-202
50,-4,5,-201
50,-4,5.5,-201
50,-4,6,-199
50,-4,6.5,-199
50,-4,7,-198
50,-4,7.5,-198
50,-4,8,-196
50,-4,8.5,-196
50,-4,9,-194
50,-4,9.5,-194
50,-4,10,-192
50,-4,10.5,-192
50,-4,11,-189
50,-4,11.5,-189
50,-4,12,-187
50,-4,12.5,-187
50,-4,13,-184
50,-4,13.5,-184
50,-4,14,-181
50,-4,14.5,-181
50,-4,15,-177
50,-4,15.5,-177
50,-4,16,-174
50,-4,16.5,-174
50,-4,17,-170
50,-4,17.5,-170
50,-4,18,-166
50,-4,18.5,-166
50,-4,19,-161
50,-4,19.5,-161
50,-4,20,-156
50,-4,20.5,-156
50,-4,21,-152
50,-4,21.5,-152
50,-4,22,-147
50,-4,22.5,-147
50,-4,23,-141
50,-4,23.5,-141
50,-4,24,-135
50,-4,24.5,-135
50,-4,25,-131
50,-4,25.5,-131
50,-4,26,-125
50,-4,26.5,-125
50,-4,27,-118
50,-4,27.5,-118
50,-4,28,-111
50,-4,28.5,-111
50,-4,29,-103
50,-4,29.5,-103
50,-4,30,-98
50,-4,30.5,-98
50,-4,31,-91
50,-4,31.5,-91
50,-4,32,-83
50,-4,32.5,-83
50,-4,33,-74
50,-4,33.5,-74
50,-4,34,-69
50,-4,34.5,-69
50,-4,35,-60
50,-4,35.5,-60
50,-4,36,-51
50,-4,36.5,-51
50,-4,37,-42
50,-4,37.5,-42
50,-4,38,-32
50,-4,38.5,-32
50,-4,39,-25
50,-4,39.5,-25
50,-4,40,-15
50,-4,40.5,-15
50,-4,41,-5
50,-4,41.5,-5
50,-4,42,5
50,-4,42.5,5
50,-4,43,12
50,-4,43.5,12
50,-4,44,23
50,-4,44.5,23
50,-4,45,34
50,-4,45.5,34
50,-4,46,46
50,-4,46.5,46
50,-4,47,58
50,-4,47.5,58
50,-4,48,66
50,-4,48.5,66
50,-4,49,78
50,-4,49.5,78
50,-4,50,91
50,-4,50.5,91
50,-4,51,104
50,-4,51.5,104
50,-4,52,112
50,-4,52.5,112
50,-4,53,126
50,-4,53.5,126
50,-4,54,139
50,-4,54.5,139
50,-4,55,153
50,-4,55.5,153
50,-4,56,168
50,-4,56.5,168
50,-4,57,177
50,-4,57.5,177
50,-4,58,192
50,-4,58.5,192
50,-4,59,207
50,-4,59.5,207
50,-4,60,222
50,-4,60.5,222
50,-3.5,0,-175
50,-3.5,0.5,-175
50,-3.5,1,-175
50,-3.5,1.5,-175
50,-3.5,2,-175
50,-3.5,2.5,-175
50,-3.5,3,-174
50,-3.5,3.5,-174
50,-3.5,4,-174
50,-3.5,4.5,-174
50,-3.5,5,-172
50,-3.5,5.5,-172
50,-3.5,6,-171
50,-3.5,6.5,-171
50,-3.5,7,-170
50,-3.5,7.5,-170
50,-3.5,8,-168
50,-3.5,8.5,-168
50,-3.5,9,-166
50,-3.5,9.5,-166
50,-3.5,10,-163
50,-3.5,10.5,-163
50,-3.5,11,-161
50,-3.5,11.5,-161
50,-3.5,12,-159
50,-3.5,12.5,-159
50,-3.5,13,-156
50,-3.5,13.5,-156
50,-3.5,14,-152
50,-3.5,14.5,-152
50,-3.5,15,-148
50,-3.5,15.5,-148
50,-3.5,16,-146
50,-3.5,16.5,-146
50,-3.5,17,-142
50,-3.5,17.5,-142
50,-3.5,18,-137
50,-3.5,18.5,-137
50,-3.5,19,-132
50,-3.5,19.5,-132
50,-3.5,20,-127
50,-3.5,20.5,-127
50,-3.5,21,-124
50,-3.5,21.5,-124
50,-3.5,22,-118
50,-3.5,22.5,-118
50,-3.5,23,-113
50,-3.5,23.5,-113
50,-3.5,24,-107
50,-3.5,24.5,-107
50,-3.5,25,-103
50,-3.5,25.5,-103
50,-3.5,26,-96
50,-3.5,26.5,-96
50,-3.5,27,-89
50,-3.5,27.5,-89
50,-3.5,28,-82
50,-3.5,28.5,-82
50,-3.5,29,-75
50,-3.5,29.5,-75
50,-3.5,30,-70
50,-3.5,30.5,-70
50,-3.5,31,-62
50,-3.5,31.5,-62
50,-3.5,32,-54
50,-3.5,32.5,-54
50,-3.5,33,-46
50,-3.5,33.5,-46
50,-3.5,34,-40
50,-3.5,34.5,-40
50,-3.5,35,-31
50,-3.5,35.5,-31
50,-3.5,36,-22
50,-3.5,36.5,-22
50,-3.5,37,-13
50,-3.5,37.5,-13
50,-3.5,38,-3
50,-3.5,38.5,-3
50,-3.5,39,2
50,-3.5,39.5,2
50,-3.5,40,12
50,-3.5,40.5,12
50,-3.5,41,22
50,-3.5,41.5,22
50,-3.5,42,33
50,-3.5,42.5,33
50,-3.5,43,40
50,-3.5,43.5,40
50,-3.5,44,51
50,-3.5,44.5,51
50,-3.5,45,63
50,-3.5,45.5,63
50,-3.5,46,74
50,-3.5,46.5,74
50,-3.5,47,86
50,-3.5,47.5,86
50,-3.5,48,94
50,-3.5,48.5,94
50,-3.5,49,107
50,-3.5,49.5,107
50,-3.5,50,119
50,-3.5,50.5,119
50,-3.5,51,132
50,-3.5,51.5,132
50,-3.5,52,141
50,-3.5,52.5,141
50,-3.5,53,154
50,-3.5,53.5,154
50,-3.5,54,168
50,-3.5,54.5,168
50,-3.5,55,182
50,-3.5,55.5,182
50,-3.5,56,196
50,-3.5,56.5,196
50,-3.5,57,206
50,-3.5,57.5,206
50,-3.5,58,220
50,-3.5,58.5,220
50,-3.5,59,235
50,-3.5,59.5,235
50,-3.5,60,250
50,-3.5,60.5,250
50,-3,0,-147
50,-3,0.5,-147
50,-3,1,-147
50,-3,1.5,-147
50,-3,2,-146
50,-3,2.5,-146
50,-3,3,-146
50,-3,3.5,-146
50,-3,4,-145
50,-3,4.5,-145
50,-3,5,-144
50,-3,5.5,-144
50,-3,6,-143
50,-3,6.5,-143
50,-3,7,-141
50,-3,7.5,-141
50,-3,8,-140
50,-3,8.5,-140
50,-3,9,-137
50,-3,9.5,-137
50,-3,10,-135
50,-3,10.5,-135
50,-3,11,-132
50,-3,11.5,-132
50,-3,12,-130
50,-3,12.5,-130
50,-3,13,-127
50,-3,13.5,-127
50,-3,14,-124
50,-3,14.5,-124
50,-3,15,-120
50,-3,15.5,-120
50,-3,16,-117
50,-3,16.5,-117
50,-3,17,-113
50,-3,17.5,-113
50,-3,18,-109
50,-3,18.5,-109
50,-3,19,-104
50,-3,19.5,-104
50,-3,20,-99
50,-3,20.5,-99
50,-3,21,-95
50,-3,21.5,-95
50,-3,22,-90
50,-3,22.5,-90
50,-3,23,-84
50,-3,23.5,-84
50,-3,24,-78
50,-3,24.5,-78
50,-3,25,-74
50,-3,25.5,-74
50,-3,26,-68
50,-3,26.5,-68
50,-3,27,-61
50,-3,27.5,-61
50,-3,28,-54
50,-3,28.5,-54
50,-3,29,-47
50,-3,29.5,-47
50,-3,30,-42
50,-3,30.5,-42
50,-3,31,-34
50,-3,31.5,-34
50,-3,32,-26
50,-3,32.5,-26
50,-3,33,-17
50,-3,33.5,-17
50,-3,34,-12
50,-3,34.5,-12
50,-3,35,-3
50,-3,35.5,-3
50,-3,36,5
50,-3,36.5,5
50,-3,37,14
50,-3,37.5,14
50,-3,38,24
50,-3,38.5,24
50,-3,39,31
50,-3,39.5,31
50,-3,40,41
50,-3,40.5,41
50,-3,41,51
50,-3,41.5,51
50,-3,42,62
50,-3,42.5,62
50,-3,43,69
50,-3,43.5,69
50,-3,44,80
50,-3,44.5,80
50,-3,45,91
50,-3,45.5,91
50,-3,46,103
50,-3,46.5,103
50,-3,47,115
50,-3,47.5,115
50,-3,48,123
50,-3,48.5,123
50,-3,49,135
50,-3,49.5,135
50,-3,50,148
50,-3,50.5,148
50,-3,51,161
50,-3,51.5,161
50,-3,52,169
50,-3,52.5,169
50,-3,53,183
50,-3,53.5,183
50,-3,54,196
50,-3,54.5,196
50,-3,55,210
50,-3,55.5,210
50,-3,56,224
50,-3,56.5,224
50,-3,57,234
50,-3,57.5,234
50,-3,58,249
50,-3,58.5,249
50,-3,59,264
50,-3,59.5,264
50,-3,60,279
50,-3,60.5,279
50,-2.5,0,-118
50,-2.5,0.5,-118
50,-2.5,1,-118
50,-2.5,1.5,-118
50,-2.5,2,-118
50,-2.5,2.5,-118
50,-2.5,3,-118
50,-2.5,3.5,-118
50,-2.5,4,-117
50,-2.5,4.5,-117
50,-2.5,5,-116
50,-2.5,5.5,-116
50,-2.5,6,-114
50,-2.5,6.5,-114
50,-2.5,7,-113
50,-2.5,7.5,-113
50,-2.5,8,-111
50,-2.5,8.5,-111
50,-2.5,9,-109
50,-2.5,9.5,-109
50,-2.5,10,-107
50,-2.5,10.5,-107
50,-2.5,11,-104
50,-2.5,11.5,-104
50,-2.5,12,-102
50,-2.5,12.5,-102
50,-2.5,13,-99
50,-2.5,13.5,-99
50,-2.5,14,-95
50,-2.5,14.5,-95
50,-2.5,15,-92
50,-2.5,15.5,-92
50,-2.5,16,-89
50,-2.5,16.5,-89
50,-2.5,17,-85
50,-2.5,17.5,-85
50,-2.5,18,-80
50,-2.5,18.5,-80
50,-2.5,19,-76
50,-2.5,19.5,-76
50,-2.5,20,-71
50,-2.5,20.5,-71
50,-2.5,21,-67
50,-2.5,21.5,-67
50,-2.5,22,-62
50,-2.5,22.5,-62
50,-2.5,23,-56
50,-2.5,23.5,-56
50,-2.5,24,-50
50,-2.5,24.5,-50
50,-2.5,25,-46
50,-2.5,25.5,-46
50,-2.5,26,-39
50,-2.5,26.5,-39
50,-2.5,27,-32
50,-2.5,27.5,-32
50,-2.5,28,-25
50,-2.5,28.5,-25
50,-2.5,29,-18
50,-2.5,29.5,-18
50,-2.5,30,-13
50,-2.5,30.5,-13
50,-2.5,31,-5
50,-2.5,31.5,-5
50,-2.5,32,2
50,-2.5,32.5,2
50,-2.5,33,10
50,-2.5,33.5,10
50,-2.5,34,16
50,-2.5,34.5,16
50,-2.5,35,24
50,-2.5,35.5,24
50,-2.5,36,34
50,-2.5,36.5,34
50,-2.5,37,43
50,-2.5,37.5,43
50,-2.5,38,52
50,-2.5,38.5,52
50,-2.5,39,59
50,-2.5,39.5,59
50,-2.5,40,69
50,-2.5,40.5,69
50,-2.5,41,79
50,-2.5,41.5,79
50,-2.5,42,90
50,-2.5,42.5,90
50,-2.5,43,97
50,-2.5,43.5,97
50,-2.5,44,108
50,-2.5,44.5,108
50,-2.5,45,120
50,-2.5,45.5,120
50,-2.5,46,131
50,-2.5,46.5,131
50,-2.5,47,143
50,-2.5,47.5,143
50,-2.5,48,151
50,-2.5,48.5,151
50,-2.5,49,163
50,-2.5,49.5,163
50,-2.5,50,176
50,-2.5,50.5,176
50,-2.5,51,189
50,-2.5,51.5,189
50,-2.5,52,198
50,-2.5,52.5,198
50,-2.5,53,211
50,-2.5,53.5,211
50,-2.5,54,225
50,-2.5,54.5,225
50,-2.5,55,239
50,-2.5,55.5,239
50,-2.5,56,253
50,-2.5,56.5,253
50,-2.5,57,262
50,-2.5,57.5,262
50,-2.5,58,277
50,-2.5,58.5,277
50,-2.5,59,292
50,-2.5,59.5,292
50,-2.5,60,307
50,-2.5,60.5,307
50,-2,0,-90
50,-2,0.5,-90
50,-2,1,-90
50,-2,1.5,-90
50,-2,2,-89
50,-2,2.5,-89
50,-2,3,-89
50,-2,3.5,-89
50,-2,4,-88
50,-2,4.5,-88
50,-2,5,-87
50,-2,5.5,-87
50,-2,6,-86
50,-2,6.5,-86
50,-2,7,-85
50,-2,7.5,-85
50,-2,8,-83
50,-2,8.5,-83
50,-2,9,-80
50,-2,9.5,-80
50,-2,10,-78
50,-2,10.5,-78
50,-2,11,-75
50,-2,11.5,-75
50,-2,12,-73
50,-2,12.5,-73
50,-2,13,-70
50,-2,13.5,-70
50,-2,14,-67
50,-2,14.5,-67
50,-2,15,-63
50,-2,15.5,-63
50,-2,16,-60
50,-2,16.5,-60
50,-2,17,-56
50,-2,17.5,-56
50,-2,18,-52
50,-2,18.5,-52
50,-2,19,-47
50,-2,19.5,-47
50,-2,20,-42
50,-2,20.5,-42
50,-2,21,-39
50,-2,21.5,-39
50,-2,22,-33
50,-2,22.5,-33
50,-2,23,-27
50,-2,23.5,-27
50,-2,24,-21
50,-2,24.5,-21
50,-2,25,-17
50,-2,25.5,-17
50,-2,26,-11
50,-2,26.5,-11
50,-2,27,-4
50,-2,27.5,-4
50,-2,28,2
50,-2,28.5,2
50,-2,29,9
50,-2,29.5,9
50,-2,30,14
50,-2,30.5,14
50,-2,31,22
50,-2,31.5,22
50,-2,32,30
50,-2,32.5,30
50,-2,33,38
50,-2,33.5,38
50,-2,34,44
50,-2,34.5,44
50,-2,35,53
50,-2,35.5,53
50,-2,36,62
50,-2,36.5,62
50,-2,37,71
50,-2,37.5,71
50,-2,38,81
50,-2,38.5,81
50,-2,39,87
50,-2,39.5,87
50,-2,40,97
50,-2,40.5,97
50,-2,41,108
50,-2,41.5,108
50,-2,42,118
50,-2,42.5,118
50,-2,43,126
50,-2,43.5,126
50,-2,44,137
50,-2,44.5,137
50,-2,45,148
50,-2,45.5,148
50,-2,46,160
50,-2,46.5,160
50,-2,47,172
50,-2,47.5,172
50,-2,48,180
50,-2,48.5,180
50,-2,49,192
50,-2,49.5,192
50,-2,50,205
50,-2,50.5,205
50,-2,51,217
50,-2,51.5,217
50,-2,52,226
50,-2,52.5,226
50,-2,53,240
50,-2,53.5,240
50,-2,54,253
50,-2,54.5,253
50,-2,55,267
50,-2,55.5,267
50,-2,56,281
50,-2,56.5,281
50,-2,57,291
50,-2,57.5,291
50,-2,58,306
50,-2,58.5,306
50,-2,59,320
50,-2,59.5,320
50,-2,60,336
50,-2,60.5,336
50,-1.5,0,-62
50,-1.5,0.5,-62
50,-1.5,1,-61
50,-1.5,1.5,-61
50,-1.5,2,-61
50,-1.5,2.5,-61
50,-1.5,3,-61
50,-1.5,3.5,-61
50,-1.5,4,-60
50,-1.5,4.5,-60
50,-1.5,5,-59
50,-1.5,5.5,-59
50,-1.5,6,-57
50,-1.5,6.5,-57
50,-1.5,7,-56
50,-1.5,7.5,-56
50,-1.5,8,-54
50,-1.5,8.5,-54
50,-1.5,9,-52
50,-1.5,9.5,-52
50,-1.5,10,-50
50,-1.5,10.5,-50
50,-1.5,11,-47
50,-1.5,11.5,-47
50,-1.5,12,-45
50,-1.5,12.5,-45
50,-1.5,13,-42
50,-1.5,13.5,-42
50,-1.5,14,-38
50,-1.5,14.5,-38
50,-1.5,15,-35
50,-1.5,15.5,-35
50,-1.5,16,-32
50,-1.5,16.5,-32
50,-1.5,17,-28
50,-1.5,17.5,-28
50,-1.5,18,-23
50,-1.5,18.5,-23
50,-1.5,19,-19
50,-1.5,19.5,-19
50,-1.5,20,-14
50,-1.5,20.5,-14
50,-1.5,21,-10
50,-1.5,21.5,-10
50,-1.5,22,-5
50,-1.5,22.5,-5
50,-1.5,23,0
50,-1.5,23.5,0
50,-1.5,24,6
50,-1.5,24.5,6
50,-1.5,25,10
50,-1.5,25.5,10
50,-1.5,26,17
50,-1.5,26.5,17
50,-1.5,27,23
50,-1.5,27.5,23
50,-1.5,28,30
50,-1.5,28.5,30
50,-1.5,29,38
50,-1.5,29.5,38
50,-1.5,30,43
50,-1.5,30.5,43
50,-1.5,31,51
50,-1.5,31.5,51
50,-1.5,32,59
50,-1.5,32.5,59
50,-1.5,33,67
50,-1.5,33.5,67
50,-1.5,34,73
50,-1.5,34.5,73
50,-1.5,35,81
50,-1.5,35.5,81
50,-1.5,36,90
50,-1.5,36.5,90
50,-1.5,37,100
50,-1.5,37.5,100
50,-1.5,38,109
50,-1.5,38.5,109
50,-1.5,39,116
50,-1.5,39.5,116
50,-1.5,40,126
50,-1.5,40.5,126
50,-1.5,41,136
50,-1.5,41.5,136
50,-1.5,42,147
50,-1.5,42.5,147
50,-1.5,43,154
50,-1.5,43.5,154
50,-1.5,44,165
50,-1.5,44.5,165
50,-1.5,45,176
50,-1.5,45.5,176
50,-1.5,46,188
50,-1.5,46.5,188
50,-1.5,47,200
50,-1.5,47.5,200
50,-1.5,48,208
50,-1.5,48.5,208
50,-1.5,49,220
50,-1.5,49.5,220
50,-1.5,50,233
50,-1.5,50.5,233
50,-1.5,51,246
50,-1.5,51.5,246
50,-1.5,52,255
50,-1.5,52.5,255
50,-1.5,53,268
50,-1.5,53.5,268
50,-1.5,54,282
50,-1.5,54.5,282
50,-1.5,55,296
50,-1.5,55.5,296
50,-1.5,56,310
50,-1.5,56.5,310
50,-1.5,57,319
50,-1.5,57.5,319
50,-1.5,58,334
50,-1.5,58.5,334
50,-1.5,59,349
50,-1.5,59.5,349
50,-1.5,60,364
50,-1.5,60.5,364
50,-1,0,-33
50,-1,0.5,-33
50,-1,1,-33
50,-1,1.5,-33
50,-1,2,-33
50,-1,2.5,-33
50,-1,3,-32
50,-1,3.5,-32
50,-1,4,-31
50,-1,4.5,-31
50,-1,5,-30
50,-1,5.5,-30
50,-1,6,-29
50,-1,6.5,-29
50,-1,7,-28
50,-1,7.5,-28
50,-1,8,-26
50,-1,8.5,-26
50,-1,9,-24
50,-1,9.5,-24
50,-1,10,-21
50,-1,10.5,-21
50,-1,11,-18
50,-1,11.5,-18
50,-1,12,-16
50,-1,12.5,-16
50,-1,13,-13
50,-1,13.5,-13
50,-1,14,-10
50,-1,14.5,-10
50,-1,15,-6
50,-1,15.5,-6
50,-1,16,-4
50,-1,16.5,-4
50,-1,17,0
50,-1,17.5,0
50,-1,18,4
50,-1,18.5,4
50,-1,19,9
50,-1,19.5,9
50,-1,20,14
50,-1,20.5,14
50,-1,21,17
50,-1,21.5,17
50,-1,22,23
50,-1,22.5,23
50,-1,23,29
50,-1,23.5,29
50,-1,24,35
50,-1,24.5,35
50,-1,25,39
50,-1,25.5,39
50,-1,26,45
50,-1,26.5,45
50,-1,27,52
50,-1,27.5,52
50,-1,28,59
50,-1,28.5,59
50,-1,29,66
50,-1,29.5,66
50,-1,30,71
50,-1,30.5,71
50,-1,31,79
50,-1,31.5,79
50,-1,32,87
50,-1,32.5,87
50,-1,33,95
50,-1,33.5,95
50,-1,34,101
50,-1,34.5,101
50,-1,35,110
50,-1,35.5,110
50,-1,36,119
50,-1,36.5,119
50,-1,37,128
50,-1,37.5,128
50,-1,38,138
50,-1,38.5,138
50,-1,39,144
50,-1,39.5,144
50,-1,40,154
50,-1,40.5,154
50,-1,41,165
50,-1,41.5,165
50,-1,42,175
50,-1,42.5,175
50,-1,43,183
50,-1,43.5,183
50,-1,44,194
50,-1,44.5,194
50,-1,45,205
50,-1,45.5,205
50,-1,46,217
50,-1,46.5,217
50,-1,47,228
50,-1,47.5,228
50,-1,48,237
50,-1,48.5,237
50,-1,49,249
50,-1,49.5,249
50,-1,50,261
50,-1,50.5,261
50,-1,51,274
50,-1,51.5,274
50,-1,52,283
50,-1,52.5,283
50,-1,53,296
50,-1,53.5,296
50,-1,54,310
50,-1,54.5,310
50,-1,55,324
50,-1,55.5,324
50,-1,56,338
50,-1,56.5,338
50,-1,57,348
50,-1,57.5,348
50,-1,58,362
50,-1,58.5,362
50,-1,59,377
50,-1,59.5,377
50,-1,60,393
50,-1,60.5,393
50,-0.5,0,-5
50,-0.5,0.5,-5
50,-0.5,1,-5
50,-0.5,1.5,-5
50,-0.5,2,-4
50,-0.5,2.5,-4
50,-0.5,3,-4
50,-0.5,3.5,-4
50,-0.5,4,-3
50,-0.5,4.5,-3
50,-0.5,5,-2
50,-0.5,5.5,-2
50,-0.5,6,0
50,-0.5,6.5,0
50,-0.5,7,0
50,-0.5,7.5,0
50,-0.5,8,2
50,-0.5,8.5,2
50,-0.5,9,4
50,-0.5,9.5,4
50,-0.5,10,6
50,-0.5,10.5,6
50,-0.5,11,9
50,-0.5,11.5,9
50,-0.5,12,11
50,-0.5,12.5,11
50,-0.5,13,14
50,-0.5,13.5,14
50,-0.5,14,18
50,-0.5,14.5,18
50,-0.5,15,21
50,-0.5,15.5,21
50,-0.5,16,24
50,-0.5,16.5,24
50,-0.5,17,28
50,-0.5,17.5,28
50,-0.5,18,33
50,-0.5,18.5,33
50,-0.5,19,37
50,-0.5,19.5,37
50,-0.5,20,42
50,-0.5,20.5,42
50,-0.5,21,46
50,-0.5,21.5,46
50,-0.5,22,51
50,-0.5,22.5,51
50,-0.5,23,57
50,-0.5,23.5,57
50,-0.5,24,63
50,-0.5,24.5,63
50,-0.5,25,67
50,-0.5,25.5,67
50,-0.5,26,74
50,-0.5,26.5,74
50,-0.5,27,80
50,-0.5,27.5,80
50,-0.5,28,87
50,-0.5,28.5,87
50,-0.5,29,95
50,-0.5,29.5,95
50,-0.5,30,100
50,-0.5,30.5,100
50,-0.5,31,107
50,-0.5,31.5,107
50,-0.5,32,116
50,-0.5,32.5,116
50,-0.5,33,124
50,-0.5,33.5,124
50,-0.5,34,130
50,-0.5,34.5,130
50,-0.5,35,138
50,-0.5,35.5,138
50,-0.5,36,147
50,-0.5,36.5,147
50,-0.5,37,157
50,-0.5,37.5,157
50,-0.5,38,166
50,-0.5,38.5,166
50,-0.5,39,173
50,-0.5,39.5,173
50,-0.5,40,183
50,-0.5,40.5,183
50,-0.5,41,193
50,-0.5,41.5,193
50,-0.5,42,204
50,-0.5,42.5,204
50,-0.5,43,211
50,-0.5,43.5,211
50,-0.5,44,222
50,-0.5,44.5,222
50,-0.5,45,233
50,-0.5,45.5,233
50,-0.5,46,245
50,-0.5,46.5,245
50,-0.5,47,257
50,-0.5,47.5,257
50,-0.5,48,265
50,-0.5,48.5,265
50,-0.5,49,277
50,-0.5,49.5,277
50,-0.5,50,290
50,-0.5,50.5,290
50,-0.5,51,303
50,-0.5,51.5,303
50,-0.5,52,312
50,-0.5,52.5,312
50,-0.5,53,325
50,-0.5,53.5,325
50,-0.5,54,339
50,-0.5,54.5,339
50,-0.5,55,352
50,-0.5,55.5,352
50,-0.5,56,367
50,-0.5,56.5,367
50,-0.5,57,376
50,-0.5,57.5,376
50,-0.5,58,391
50,-0.5,58.5,391
50,-0.5,59,406
50,-0.5,59.5,406
50,-0.5,60,421
50,-0.5,60.5,421
50,0,0,23
50,0,0.5,23
50,0,1,23
50,0,1.5,23
50,0,2,23
50,0,2.5,23
50,0,3,24
50,0,3.5,24
50,0,4,25
50,0,4.5,25
50,0,5,26
50,0,5.5,26
50,0,6,27
50,0,6.5,27
50,0,7,28
50,0,7.5,28
50,0,8,30
50,0,8.5,30
50,0,9,32
50,0,9.5,32
50,0,10,35
50,0,10.5,35
50,0,11,37
50,0,11.5,37
50,0,12,39
50,0,12.5,39
50,0,13,43
50,0,13.5,43
50,0,14,46
50,0,14.5,46
50,0,15,50
50,0,15.5,50
50,0,16,52
50,0,16.5,52
50,0,17,57
50,0,17.5,57
50,0,18,61
50,0,18.5,61
50,0,19,66
50,0,19.5,66
50,0,20,71
50,0,20.5,71
50,0,21,74
50,0,21.5,74
50,0,22,80
50,0,22.5,80
50,0,23,85
50,0,23.5,85
50,0,24,91
50,0,24.5,91
50,0,25,96
50,0,25.5,96
50,0,26,102
50,0,26.5,102
50,0,27,109
50,0,27.5,109
50,0,28,116
50,0,28.5,116
50,0,29,123
50,0,29.5,123
50,0,30,128
50,0,30.5,128
50,0,31,136
50,0,31.5,136
50,0,32,144
50,0,32.5,144
50,0,33,152
50,0,33.5,152
50,0,34,158
50,0,34.5,158
50,0,35,167
50,0,35.5,167
50,0,36,176
50,0,36.5,176
50,0,37,185
50,0,37.5,185
50,0,38,195
50,0,38.5,195
50,0,39,201
50,0,39.5,201
50,0,40,211
50,0,40.5,211
50,0,41,222
50,0,41.5,222
50,0,42,232
50,0,42.5,232
50,0,43,239
50,0,43.5,239
50,0,44,250
50,0,44.5,250
50,0,45,262
50,0,45.5,262
50,0,46,273
50,0,46.5,273
50,0,47,285
50,0,47.5,285
50,0,48,293
50,0,48.5,293
50,0,49,306
50,0,49.5,306
50,0,50,318
50,0,50.5,318
50,0,51,331
50,0,51.5,331
50,0,52,340
50,0,52.5,340
50,0,53,353
50,0,53.5,353
50,0,54,367
50,0,54.5,367
50,0,55,381
50,0,55.5,381
50,0,56,395
50,0,56.5,395
50,0,57,405
50,0,57.5,405
50,0,58,419
50,0,58.5,419
50,0,59,434
50,0,59.5,434
50,0,60,449
50,0,60.5,449
50,0.5,0,51
50,0.5,0.5,51
50,0.5,1,51
50,0.5,1.5,51
50,0.5,2,52
50,0.5,2.5,52
50,0.5,3,52
50,0.5,3.5,52
50,0.5,4,53
50,0.5,4.5,53
50,0.5,5,54
50,0.5,5.5,54
50,0.5,6,56
50,0.5,6.5,56
50,0.5,7,57
50,0.5,7.5,57
50,0.5,8,59
50,0.5,8.5,59
50,0.5,9,61
50,0.5,9.5,61
50,0.5,10,63
50,0.5,10.5,63
50,0.5,11,66
50,0.5,11.5,66
50,0.5,12,68
50,0.5,12.5,68
50,0.5,13,71
50,0.5,13.5,71
50,0.5,14,74
50,0.5,14.5,74
50,0.5,15,78
50,0.5,15.5,78
50,0.5,16,81
50,0.5,16.5,81
50,0.5,17,85
50,0.5,17.5,85
50,0.5,18,89
50,0.5,18.5,89
50,0.5,19,94
50,0.5,19.5,94
50,0.5,20,99
50,0.5,20.5,99
50,0.5,21,103
50,0.5,21.5,103
50,0.5,22,108
50,0.5,22.5,108
50,0.5,23,114
50,0.5,23.5,114
50,0.5,24,120
50,0.5,24.5,120
50,0.5,25,124
50,0.5,25.5,124
50,0.5,26,131
50,0.5,26.5,131
50,0.5,27,137
50,0.5,27.5,137
50,0.5,28,144
50,0.5,28.5,144
50,0.5,29,152
50,0.5,29.5,152
50,0.5,30,157
50,0.5,30.5,157
50,0.5,31,164
50,0.5,31.5,164
50,0.5,32,172
50,0.5,32.5,172
50,0.5,33,181
50,0.5,33.5,181
50,0.5,34,186
50,0.5,34.5,186
50,0.5,35,195
50,0.5,35.5,195
50,0.5,36,204
50,0.5,36.5,204
50,0.5,37,214
50,0.5,37.5,214
50,0.5,38,223
50,0.5,38.5,223
50,0.5,39,230
50,0.5,39.5,230
50,0.5,40,240
50,0.5,40.5,240
50,0.5,41,250
50,0.5,41.5,250
50,0.5,42,261
50,0.5,42.5,261
50,0.5,43,268
50,0.5,43.5,268
50,0.5,44,279
50,0.5,44.5,279
50,0.5,45,290
50,0.5,45.5,290
50,0.5,46,302
50,0.5,46.5,302
50,0.5,47,314
50,0.5,47.5,314
50,0.5,48,322
50,0.5,48.5,322
50,0.5,49,334
50,0.5,49.5,334
50,0.5,50,347
50,0.5,50.5,347
50,0.5,51,360
50,0.5,51.5,360
50,0.5,52,368
50,0.5,52.5,368
50,0.5,53,382
50,0.5,53.5,382
50,0.5,54,395
50,0.5,54.5,395
50,0.5,55,409
50,0.5,55.5,409
50,0.5,56,424
50,0.5,56.5,424
50,0.5,57,433
50,0.5,57.5,433
50,0.5,58,448
50,0.5,58.5,448
50,0.5,59,463
50,0.5,59.5,463
50,0.5,60,478
50,0.5,60.5,478
50,1,0,80
50,1,0.5,80
50,1,1,80
50,1,1.5,80
50,1,2,80
50,1,2.5,80
50,1,3,81
50,1,3.5,81
50,1,4,81
50,1,4.5,81
50,1,5,83
50,1,5.5,83
50,1,6,84
50,1,6.5,84
50,1,7,85
50,1,7.5,85
50,1,8,87
50,1,8.5,87
50,1,9,89
50,1,9.5,89
50,1,10,92
50,1,10.5,92
50,1,11,94
50,1,11.5,94
50,1,12,96
50,1,12.5,96
50,1,13,99
50,1,13.5,99
50,1,14,103
50,1,14.5,103
50,1,15,107
50,1,15.5,107
50,1,16,109
50,1,16.5,109
50,1,17,113
50,1,17.5,113
50,1,18,118
50,1,18.5,118
50,1,19,123
50,1,19.5,123
50,1,20,128
50,1,20.5,128
50,1,21,131
50,1,21.5,131
50,1,22,137
50,1,22.5,137
50,1,23,142
50,1,23.5,142
50,1,24,148
50,1,24.5,148
50,1,25,152
50,1,25.5,152
50,1,26,159
50,1,26.5,159
50,1,27,166
50,1,27.5,166
50,1,28,173
50,1,28.5,173
50,1,29,180
50,1,29.5,180
50,1,30,185
50,1,30.5,185
50,1,31,193
50,1,31.5,193
50,1,32,201
50,1,32.5,201
50,1,33,209
50,1,33.5,209
50,1,34,215
50,1,34.5,215
50,1,35,224
50,1,35.5,224
50,1,36,233
50,1,36.5,233
50,1,37,242
50,1,37.5,242
50,1,38,252
50,1,38.5,252
50,1,39,258
50,1,39.5,258
50,1,40,268
50,1,40.5,268
50,1,41,278
50,1,41.5,278
50,1,42,289
50,1,42.5,289
50,1,43,296
50,1,43.5,296
50,1,44,307
50,1,44.5,307
50,1,45,319
50,1,45.5,319
50,1,46,330
50,1,46.5,330
50,1,47,342
50,1,47.5,342
50,1,48,350
50,1,48.5,350
50,1,49,363
50,1,49.5,363
50,1,50,375
50,1,50.5,375
50,1,51,388
50,1,51.5,388
50,1,52,397
50,1,52.5,397
50,1,53,410
50,1,53.5,410
50,1,54,424
50,1,54.5,424
50,1,55,438
50,1,55.5,438
50,1,56,452
50,1,56.5,452
50,1,57,462
50,1,57.5,462
50,1,58,476
50,1,58.5,476
50,1,59,491
50,1,59.5,491
50,1,60,506
50,1,60.5,506
50,1.5,0,108
50,1.5,0.5,108
50,1.5,1,108
50,1.5,1.5,108
50,1.5,2,109
50,1.5,2.5,109
50,1.5,3,109
50,1.5,3.5,109
50,1.5,4,110
50,1.5,4.5,110
50,1.5,5,111
50,1.5,5.5,111
50,1.5,6,113
50,1.5,6.5,113
50,1.5,7,114
50,1.5,7.5,114
50,1.5,8,115
50,1.5,8.5,115
50,1.5,9,118
50,1.5,9.5,118
50,1.5,10,120
50,1.5,10.5,120
50,1.5,11,123
50,1.5,11.5,123
50,1.5,12,125
50,1.5,12.5,125
50,1.5,13,128
50,1.5,13.5,128
50,1.5,14,131
50,1.5,14.5,131
50,1.5,15,135
50,1.5,15.5,135
50,1.5,16,138
50,1.5,16.5,138
50,1.5,17,142
50,1.5,17.5,142
50,1.5,18,146
50,1.5,18.5,146
50,1.5,19,151
50,1.5,19.5,151
50,1.5,20,156
50,1.5,20.5,156
50,1.5,21,160
50,1.5,21.5,160
50,1.5,22,165
50,1.5,22.5,165
50,1.5,23,171
50,1.5,23.5,171
50,1.5,24,177
50,1.5,24.5,177
50,1.5,25,181
50,1.5,25.5,181
50,1.5,26,187
50,1.5,26.5,187
50,1.5,27,194
50,1.5,27.5,194
50,1.5,28,201
50,1.5,28.5,201
50,1.5,29,208
50,1.5,29.5,208
50,1.5,30,213
50,1.5,30.5,213
50,1.5,31,221
50,1.5,31.5,221
50,1.5,32,229
50,1.5,32.5,229
50,1.5,33,238
50,1.5,33.5,238
50,1.5,34,243
50,1.5,34.5,243
50,1.5,35,252
50,1.5,35.5,252
50,1.5,36,261
50,1.5,36.5,261
50,1.5,37,270
50,1.5,37.5,270
50,1.5,38,280
50,1.5,38.5,280
50,1.5,39,287
50,1.5,39.5,287
50,1.5,40,297
50,1.5,40.5,297
50,1.5,41,307
50,1.5,41.5,307
50,1.5,42,318
50,1.5,42.5,318
50,1.5,43,325
50,1.5,43.5,325
50,1.5,44,336
50,1.5,44.5,336
50,1.5,45,347
50,1.5,45.5,347
50,1.5,46,359
50,1.5,46.5,359
50,1.5,47,371
50,1.5,47.5,371
50,1.5,48,379
50,1.5,48.5,379
50,1.5,49,391
50,1.5,49.5,391
50,1.5,50,404
50,1.5,50.5,404
50,1.5,51,417
50,1.5,51.5,417
50,1.5,52,425
50,1.5,52.5,425
50,1.5,53,439
50,1.5,53.5,439
50,1.5,54,452
50,1.5,54.5,452
50,1.5,55,466
50,1.5,55.5,466
50,1.5,56,480
50,1.5,56.5,480
50,1.5,57,490
50,1.5,57.5,490
50,1.5,58,505
50,1.5,58.5,505
50,1.5,59,520
50,1.5,59.5,520
50,1.5,60,535
50,1.5,60.5,535
50,2,0,137
50,2,0.5,137
50,2,1,137
50,2,1.5,137
50,2,2,137
50,2,2.5,137
50,2,3,138
50,2,3.5,138
50,2,4,138
50,2,4.5,138
50,2,5,140
50,2,5.5,140
50,2,6,141
50,2,6.5,141
50,2,7,142
50,2,7.5,142
50,2,8,144
50,2,8.5,144
50,2,9,146
50,2,9.5,146
50,2,10,149
50,2,10.5,149
50,2,11,151
50,2,11.5,151
50,2,12,153
50,2,12.5,153
50,2,13,156
50,2,13.5,156
50,2,14,160
50,2,14.5,160
50,2,15,164
50,2,15.5,164
50,2,16,166
50,2,16.5,166
50,2,17,170
50,2,17.5,170
50,2,18,175
50,2,18.5,175
50,2,19,180
50,2,19.5,180
50,2,20,185
50,2,20.5,185
50,2,21,188
50,2,21.5,188
50,2,22,193
50,2,22.5,193
50,2,23,199
50,2,23.5,199
50,2,24,205
50,2,24.5,205
50,2,25,209
50,2,25.5,209
50,2,26,216
50,2,26.5,216
50,2,27,223
50,2,27.5,223
50,2,28,230
50,2,28.5,230
50,2,29,237
50,2,29.5,237
50,2,30,242
50,2,30.5,242
50,2,31,250
50,2,31.5,250
50,2,32,258
50,2,32.5,258
50,2,33,266
50,2,33.5,266
50,2,34,272
50,2,34.5,272
50,2,35,280
50,2,35.5,280
50,2,36,290
50,2,36.5,290
50,2,37,299
50,2,37.5,299
50,2,38,308
50,2,38.5,308
50,2,39,315
50,2,39.5,315
50,2,40,325
50,2,40.5,325
50,2,41,335
50,2,41.5,335
50,2,42,346
50,2,42.5,346
50,2,43,353
50,2,43.5,353
50,2,44,364
50,2,44.5,364
50,2,45,376
50,2,45.5,376
50,2,46,387
50,2,46.5,387
50,2,47,399
50,2,47.5,399
50,2,48,407
50,2,48.5,407
50,2,49,420
50,2,49.5,420
50,2,50,432
50,2,50.5,432
50,2,51,445
50,2,51.5,445
50,2,52,454
50,2,52.5,454
50,2,53,467
50,2,53.5,467
50,2,54,481
50,2,54.5,481
50,2,55,495
50,2,55.5,495
50,2,56,509
50,2,56.5,509
50,2,57,518
50,2,57.5,518
50,2,58,533
50,2,58.5,533
50,2,59,548
50,2,59.5,548
50,2,60,563
50,2,60.5,563
50,2.5,0,165
50,2.5,0.5,165
50,2.5,1,165
50,2.5,1.5,165
50,2.5,2,166
50,2.5,2.5,166
50,2.5,3,166
50,2.5,3.5,166
50,2.5,4,167
50,2.5,4.5,167
50,2.5,5,168
50,2.5,5.5,168
50,2.5,6,169
50,2.5,6.5,169
50,2.5,7,169
50,2.5,7.5,171
50,2.5,8,172
50,2.5,8.5,172
50,2.5,9,175
50,2.5,9.5,175
50,2.5,10,177
50,2.5,10.5,177
50,2.5,11,180
50,2.5,11.5,180
50,2.5,12,182
50,2.5,12.5,182
50,2.5,13,185
50,2.5,13.5,185
50,2.5,14,188
50,2.5,14.5,188
50,2.5,15,192
50,2.5,15.5,192
50,2.5,16,195
50,2.5,16.5,195
50,2.5,17,199
50,2.5,17.5,199
50,2.5,18,203
50,2.5,18.5,203
50,2.5,19,208
50,2.5,19.5,208
50,2.5,20,213
50,2.5,20.5,213
50,2.5,21,216
50,2.5,21.5,216
50,2.5,22,222
50,2.5,22.5,222
50,2.5,23,228
50,2.5,23.5,228
50,2.5,24,234
50,2.5,24.5,234
50,2.5,25,238
50,2.5,25.5,238
50,2.5,26,244
50,2.5,26.5,244
50,2.5,27,251
50,2.5,27.5,251
50,2.5,28,258
50,2.5,28.5,258
50,2.5,29,265
50,2.5,29.5,265
50,2.5,30,270
50,2.5,30.5,270
50,2.5,31,278
50,2.5,31.5,278
50,2.5,32,286
50,2.5,32.5,286
50,2.5,33,294
50,2.5,33.5,294
50,2.5,34,300
50,2.5,34.5,300
50,2.5,35,309
50,2.5,35.5,309
50,2.5,36,318
50,2.5,36.5,318
50,2.5,37,327
50,2.5,37.5,327
50,2.5,38,337
50,2.5,38.5,337
50,2.5,39,343
50,2.5,39.5,343
50,2.5,40,354
50,2.5,40.5,354
50,2.5,41,364
50,2.5,41.5,364
50,2.5,42,374
50,2.5,42.5,374
50,2.5,43,382
50,2.5,43.5,382
50,2.5,44,393
50,2.5,44.5,393
50,2.5,45,404
50,2.5,45.5,404
50,2.5,46,416
50,2.5,46.5,416
50,2.5,47,428
50,2.5,47.5,428
50,2.5,48,436
50,2.5,48.5,436
50,2.5,49,448
50,2.5,49.5,448
50,2.5,50,461
50,2.5,50.5,461
50,2.5,51,473
50,2.5,51.5,473
50,2.5,52,482
50,2.5,52.5,482
50,2.5,53,496
50,2.5,53.5,496
50,2.5,54,509
50,2.5,54.5,509
50,2.5,55,523
50,2.5,55.5,523
50,2.5,56,537
50,2.5,56.5,537
50,2.5,57,547
50,2.5,57.5,547
50,2.5,58,562
50,2.5,58.5,562
50,2.5,59,576
50,2.5,59.5,576
50,2.5,60,592
50,2.5,60.5,592
50,3,0,193
50,3,0.5,193
50,3,1,194
50,3,1.5,194
50,3,2,194
50,3,2.5,194
50,3,3,194
50,3,3.5,194
50,3,4,195
50,3,4.5,195
50,3,5,196
50,3,5.5,196
50,3,6,198
50,3,6.5,198
50,3,7,199
50,3,7.5,199
50,3,8,201
50,3,8.5,201
50,3,9,203
50,3,9.5,203
50,3,10,205
50,3,10.5,205
50,3,11,208
50,3,11.5,208
50,3,12,210
50,3,12.5,210
50,3,13,213
50,3,13.5,213
50,3,14,217
50,3,14.5,217
50,3,15,220
50,3,15.5,220
50,3,16,223
50,3,16.5,223
50,3,17,227
50,3,17.5,227
50,3,18,232
50,3,18.5,232
50,3,19,236
50,3,19.5,236
50,3,20,241
50,3,20.5,241
50,3,21,245
50,3,21.5,245
50,3,22,250
50,3,22.5,250
50,3,23,256
50,3,23.5,256
50,3,24,262
50,3,24.5,262
50,3,25,266
50,3,25.5,266
50,3,26,273
50,3,26.5,273
50,3,27,280
50,3,27.5,280
50,3,28,287
50,3,28.5,287
50,3,29,294
50,3,29.5,294
50,3,30,299
50,3,30.5,299
50,3,31,307
50,3,31.5,307
50,3,32,315
50,3,32.5,315
50,3,33,323
50,3,33.5,323
50,3,34,329
50,3,34.5,329
50,3,35,337
50,3,35.5,337
50,3,36,346
50,3,36.5,346
50,3,37,356
50,3,37.5,356
50,3,38,365
50,3,38.5,365
50,3,39,372
50,3,39.5,372
50,3,40,382
50,3,40.5,382
50,3,41,392
50,3,41.5,392
50,3,42,403
50,3,42.5,403
50,3,43,410
50,3,43.5,410
50,3,44,421
50,3,44.5,421
50,3,45,433
50,3,45.5,433
50,3,46,444
50,3,46.5,444
50,3,47,456
50,3,47.5,456
50,3,48,464
50,3,48.5,464
50,3,49,476
50,3,49.5,476
50,3,50,489
50,3,50.5,489
50,3,51,502
50,3,51.5,502
50,3,52,511
50,3,52.5,511
50,3,53,524
50,3,53.5,524
50,3,54,538
50,3,54.5,538
50,3,55,552
50,3,55.5,552
50,3,56,566
50,3,56.5,566
50,3,57,575
50,3,57.5,575
50,3,58,590
50,3,58.5,590
50,3,59,605
50,3,59.5,605
50,3,60,620
50,3,60.5,620
50,3.5,0,222
50,3.5,0.5,222
50,3.5,1,222
50,3.5,1.5,222
50,3.5,2,222
50,3.5,2.5,222
50,3.5,3,223
50,3.5,3.5,223
50,3.5,4,224
50,3.5,4.5,224
50,3.5,5,225
50,3.5,5.5,225
50,3.5,6,226
50,3.5,6.5,226
50,3.5,7,227
50,3.5,7.5,227
50,3.5,8,229
50,3.5,8.5,229
50,3.5,9,231
50,3.5,9.5,231
50,3.5,10,234
50,3.5,10.5,234
50,3.5,11,237
50,3.5,11.5,237
50,3.5,12,239
50,3.5,12.5,239
50,3.5,13,242
50,3.5,13.5,242
50,3.5,14,245
50,3.5,14.5,245
50,3.5,15,249
50,3.5,15.5,249
50,3.5,16,252
50,3.5,16.5,252
50,3.5,17,256
50,3.5,17.5,256
50,3.5,18,260
50,3.5,18.5,260
50,3.5,19,265
50,3.5,19.5,265
50,3.5,20,270
50,3.5,20.5,270
50,3.5,21,273
50,3.5,21.5,273
50,3.5,22,279
50,3.5,22.5,279
50,3.5,23,285
50,3.5,23.5,285
50,3.5,24,291
50,3.5,24.5,291
50,3.5,25,295
50,3.5,25.5,295
50,3.5,26,301
50,3.5,26.5,301
50,3.5,27,308
50,3.5,27.5,308
50,3.5,28,315
50,3.5,28.5,315
50,3.5,29,322
50,3.5,29.5,322
50,3.5,30,327
50,3.5,30.5,327
50,3.5,31,335
50,3.5,31.5,335
50,3.5,32,343
50,3.5,32.5,343
50,3.5,33,351
50,3.5,33.5,351
50,3.5,34,357
50,3.5,34.5,357
50,3.5,35,366
50,3.5,35.5,366
50,3.5,36,375
50,3.5,36.5,375
50,3.5,37,384
50,3.5,37.5,384
50,3.5,38,394
50,3.5,38.5,394
50,3.5,39,400
50,3.5,39.5,400
50,3.5,40,410
50,3.5,40.5,410
50,3.5,41,421
50,3.5,41.5,421
50,3.5,42,431
50,3.5,42.5,431
50,3.5,43,439
50,3.5,43.5,439
50,3.5,44,450
50,3.5,44.5,450
50,3.5,45,461
50,3.5,45.5,461
50,3.5,46,473
50,3.5,46.5,473
50,3.5,47,484
50,3.5,47.5,484
50,3.5,48,493
50,3.5,48.5,493
50,3.5,49,505
50,3.5,49.5,505
50,3.5,50,518
50,3.5,50.5,518
50,3.5,51,530
50,3.5,51.5,530
50,3.5,52,539
50,3.5,52.5,539
50,3.5,53,553
50,3.5,53.5,553
50,3.5,54,566
50,3.5,54.5,566
50,3.5,55,580
50,3.5,55.5,580
50,3.5,56,594
50,3.5,56.5,594
50,3.5,57,604
50,3.5,57.5,604
50,3.5,58,618
50,3.5,58.5,618
50,3.5,59,633
50,3.5,59.5,633
50,3.5,60,649
50,3.5,60.5,649
50,4,0,250
50,4,0.5,250
50,4,1,250
50,4,1.5,250
50,4,2,251
50,4,2.5,251
50,4,3,251
50,4,3.5,251
50,4,4,252
50,4,4.5,252
50,4,5,253
50,4,5.5,253
50,4,6,255
50,4,6.5,255
50,4,7,256
50,4,7.5,256
50,4,8,258
50,4,8.5,258
50,4,9,260
50,4,9.5,260
50,4,10,262
50,4,10.5,262
50,4,11,265
50,4,11.5,265
50,4,12,267
50,4,12.5,267
50,4,13,270
50,4,13.5,270
50,4,14,274
50,4,14.5,274
50,4,15,277
50,4,15.5,277
50,4,16,280
50,4,16.5,280
50,4,17,284
50,4,17.5,284
50,4,18,289
50,4,18.5,289
50,4,19,293
50,4,19.5,293
50,4,20,298
50,4,20.5,298
50,4,21,302
50,4,21.5,302
50,4,22,307
50,4,22.5,307
50,4,23,313
50,4,23.5,313
50,4,24,319
50,4,24.5,319
50,4,25,323
50,4,25.5,323
50,4,26,330
50,4,26.5,330
50,4,27,336
50,4,27.5,336
50,4,28,343
50,4,28.5,343
50,4,29,351
50,4,29.5,351
50,4,30,356
50,4,30.5,356
50,4,31,363
50,4,31.5,363
50,4,32,372
50,4,32.5,372
50,4,33,380
50,4,33.5,380
50,4,34,386
50,4,34.5,386
50,4,35,394
50,4,35.5,394
50,4,36,403
50,4,36.5,403
50,4,37,413
50,4,37.5,413
50,4,38,422
50,4,38.5,422
50,4,39,429
50,4,39.5,429
50,4,40,439
50,4,40.5,439
50,4,41,449
50,4,41.5,449
50,4,42,460
50,4,42.5,460
50,4,43,467
50,4,43.5,467
50,4,44,478
50,4,44.5,478
50,4,45,489
50,4,45.5,489
50,4,46,501
50,4,46.5,501
50,4,47,513
50,4,47.5,513
50,4,48,521
50,4,48.5,521
50,4,49,533
50,4,49.5,533
50,4,50,546
50,4,50.5,546
50,4,51,559
50,4,51.5,559
50,4,52,568
50,4,52.5,568
50,4,53,581
50,4,53.5,581
50,4,54,595
50,4,54.5,595
50,4,55,608
50,4,55.5,608
50,4,56,623
50,4,56.5,623
50,4,57,632
50,4,57.5,632
50,4,58,647
50,4,58.5,647
50,4,59,662
50,4,59.5,662
50,4,60,677
50,4,60.5,677
50,4.5,0,279
50,4.5,0.5,279
50,4.5,1,279
50,4.5,1.5,279
50,4.5,2,279
50,4.5,2.5,279
50,4.5,3,280
50,4.5,3.5,280
50,4.5,4,281
50,4.5,4.5,281
50,4.5,5,282
50,4.5,5.5,282
50,4.5,6,283
50,4.5,6.5,283
50,4.5,7,284
50,4.5,7.5,284
50,4.5,8,286
50,4.5,8.5,286
50,4.5,9,288
50,4.5,9.5,288
50,4.5,10,291
50,4.5,10.5,291
50,4.5,11,293
50,4.5,11.5,293
50,4.5,12,295
50,4.5,12.5,295
50,4.5,13,299
50,4.5,13.5,299
50,4.5,14,302
50,4.5,14.5,302
50,4.5,15,306
50,4.5,15.5,306
50,4.5,16,308
50,4.5,16.5,308
50,4.5,17,313
50,4.5,17.5,313
50,4.5,18,317
50,4.5,18.5,317
50,4.5,19,322
50,4.5,19.5,322
50,4.5,20,327
50,4.5,20.5,327
50,4.5,21,330
50,4.5,21.5,330
50,4.5,22,336
50,4.5,22.5,336
50,4.5,23,341
50,4.5,23.5,341
50,4.5,24,347
50,4.5,24.5,347
50,4.5,25,352
50,4.5,25.5,352
50,4.5,26,358
50,4.5,26.5,358
50,4.5,27,365
50,4.5,27.5,365
50,4.5,28,372
50,4.5,28.5,372
50,4.5,29,379
50,4.5,29.5,379
50,4.5,30,384
50,4.5,30.5,384
50,4.5,31,392
50,4.5,31.5,392
50,4.5,32,400
50,4.5,32.5,400
50,4.5,33,408
50,4.5,33.5,408
50,4.5,34,414
50,4.5,34.5,414
50,4.5,35,423
50,4.5,35.5,423
50,4.5,36,432
50,4.5,36.5,432
50,4.5,37,441
50,4.5,37.5,441
50,4.5,38,451
50,4.5,38.5,451
50,4.5,39,457
50,4.5,39.5,457
50,4.5,40,467
50,4.5,40.5,467
50,4.5,41,478
50,4.5,41.5,478
50,4.5,42,488
50,4.5,42.5,488
50,4.5,43,495
50,4.5,43.5,495
50,4.5,44,507
50,4.5,44.5,507
50,4.5,45,518
50,4.5,45.5,518
50,4.5,46,529
50,4.5,46.5,529
50,4.5,47,541
50,4.5,47.5,541
50,4.5,48,549
50,4.5,48.5,549
50,4.5,49,562
50,4.5,49.5,562
50,4.5,50,574
50,4.5,50.5,574
50,4.5,51,587
50,4.5,51.5,587
50,4.5,52,596
50,4.5,52.5,596
50,4.5,53,609
50,4.5,53.5,609
50,4.5,54,623
50,4.5,54.5,623
50,4.5,55,637
50,4.5,55.5,637
50,4.5,56,651
50,4.5,56.5,651
50,4.5,57,661
50,4.5,57.5,661
50,4.5,58,675
50,4.5,58.5,675
50,4.5,59,690
50,4.5,59.5,690
50,4.5,60,705
50,4.5,60.5,705
50,5,0,279
50,5,0.5,307
50,5,1,307
50,5,1.5,307
50,5,2,308
50,5,2.5,308
50,5,3,308
50,5,3.5,308
50,5,4,309
50,5,4.5,309
50,5,5,310
50,5,5.5,310
50,5,6,312
50,5,6.5,312
50,5,7,313
50,5,7.5,313
50,5,8,315
50,5,8.5,315
50,5,9,317
50,5,9.5,317
50,5,10,319
50,5,10.5,319
50,5,11,322
50,5,11.5,322
50,5,12,324
50,5,12.5,324
50,5,13,327
50,5,13.5,327
50,5,14,331
50,5,14.5,331
50,5,15,334
50,5,15.5,334
50,5,16,337
50,5,16.5,337
50,5,17,341
50,5,17.5,341
50,5,18,345
50,5,18.5,345
50,5,19,350
50,5,19.5,350
50,5,20,355
50,5,20.5,355
50,5,21,359
50,5,21.5,359
50,5,22,364
50,5,22.5,364
50,5,23,370
50,5,23.5,370
50,5,24,376
50,5,24.5,376
50,5,25,380
50,5,25.5,380
50,5,26,387
50,5,26.5,387
50,5,27,393
50,5,27.5,393
50,5,28,400
50,5,28.5,400
50,5,29,408
50,5,29.5,408
50,5,30,413
50,5,30.5,413
50,5,31,420
50,5,31.5,420
50,5,32,428
50,5,32.5,428
50,5,33,437
50,5,33.5,437
50,5,34,442
50,5,34.5,442
50,5,35,451
50,5,35.5,451
50,5,36,460
50,5,36.5,460
50,5,37,470
50,5,37.5,470
50,5,38,479
50,5,38.5,479
50,5,39,486
50,5,39.5,486
50,5,40,496
50,5,40.5,496
50,5,41,506
50,5,41.5,506
50,5,42,517
50,5,42.5,517
50,5,43,524
50,5,43.5,524
50,5,44,535
50,5,44.5,535
50,5,45,546
50,5,45.5,546
50,5,46,558
50,5,46.5,558
50,5,47,570
50,5,47.5,570
50,5,48,578
50,5,48.5,578
50,5,49,590
50,5,49.5,590
50,5,50,603
50,5,50.5,603
50,5,51,616
50,5,51.5,616
50,5,52,625
50,5,52.5,625
50,5,53,638
50,5,53.5,638
50,5,54,651
50,5,54.5,651
50,5,55,665
50,5,55.5,665
50,5,56,680
50,5,56.5,680
50,5,57,689
50,5,57.5,689
50,5,58,704
50,5,58.5,704
50,5,59,719
50,5,59.5,719
50,5,60,734
50,5,60.5,734
50,5.5,0,307
50,5.5,0.5,336
50,5.5,1,336
50,5.5,1.5,336
50,5.5,2,336
50,5.5,2.5,336
50,5.5,3,337
50,5.5,3.5,337
50,5.5,4,338
50,5.5,4.5,338
50,5.5,5,339
50,5.5,5.5,339
50,5.5,6,340
50,5.5,6.5,340
50,5.5,7,341
50,5.5,7.5,341
50,5.5,8,343
50,5.5,8.5,343
50,5.5,9,345
50,5.5,9.5,345
50,5.5,10,348
50,5.5,10.5,348
50,5.5,11,350
50,5.5,11.5,350
50,5.5,12,352
50,5.5,12.5,352
50,5.5,13,356
50,5.5,13.5,356
50,5.5,14,359
50,5.5,14.5,359
50,5.5,15,363
50,5.5,15.5,363
50,5.5,16,365
50,5.5,16.5,365
50,5.5,17,369
50,5.5,17.5,369
50,5.5,18,374
50,5.5,18.5,374
50,5.5,19,379
50,5.5,19.5,379
50,5.5,20,384
50,5.5,20.5,384
50,5.5,21,387
50,5.5,21.5,387
50,5.5,22,393
50,5.5,22.5,393
50,5.5,23,398
50,5.5,23.5,398
50,5.5,24,404
50,5.5,24.5,404
50,5.5,25,409
50,5.5,25.5,409
50,5.5,26,415
50,5.5,26.5,415
50,5.5,27,422
50,5.5,27.5,422
50,5.5,28,429
50,5.5,28.5,429
50,5.5,29,436
50,5.5,29.5,436
50,5.5,30,441
50,5.5,30.5,441
50,5.5,31,449
50,5.5,31.5,449
50,5.5,32,457
50,5.5,32.5,457
50,5.5,33,465
50,5.5,33.5,465
50,5.5,34,471
50,5.5,34.5,471
50,5.5,35,480
50,5.5,35.5,480
50,5.5,36,489
50,5.5,36.5,489
50,5.5,37,498
50,5.5,37.5,498
50,5.5,38,508
50,5.5,38.5,508
50,5.5,39,508
50,5.5,39.5,514
50,5.5,40,524
50,5.5,40.5,524
50,5.5,41,535
50,5.5,41.5,535
50,5.5,42,545
50,5.5,42.5,545
50,5.5,43,552
50,5.5,43.5,552
50,5.5,44,563
50,5.5,44.5,563
50,5.5,45,575
50,5.5,45.5,575
50,5.5,46,586
50,5.5,46.5,586
50,5.5,47,598
50,5.5,47.5,598
50,5.5,48,606
50,5.5,48.5,606
50,5.5,49,619
50,5.5,49.5,619
50,5.5,50,631
50,5.5,50.5,631
50,5.5,51,644
50,5.5,51.5,644
50,5.5,52,653
50,5.5,52.5,653
50,5.5,53,666
50,5.5,53.5,666
50,5.5,54,680
50,5.5,54.5,680
50,5.5,55,694
50,5.5,55.5,694
50,5.5,56,708
50,5.5,56.5,708
50,5.5,57,718
50,5.5,57.5,718
50,5.5,58,732
50,5.5,58.5,732
50,5.5,59,747
50,5.5,59.5,747
50,5.5,60,762
50,5.5,60.5,762
50,6,0,336
50,6,0.5,364
50,6,1,364
50,6,1.5,364
50,6,2,365
50,6,2.5,365
50,6,3,365
50,6,3.5,365
50,6,4,366
50,6,4.5,366
50,6,5,367
50,6,5.5,367
50,6,6,369
50,6,6.5,369
50,6,7,370
50,6,7.5,370
50,6,8,372
50,6,8.5,372
50,6,9,374
50,6,9.5,374
50,6,10,376
50,6,10.5,376
50,6,11,379
50,6,11.5,379
50,6,12,381
50,6,12.5,381
50,6,13,384
50,6,13.5,384
50,6,14,387
50,6,14.5,387
50,6,15,391
50,6,15.5,391
50,6,16,394
50,6,16.5,394
50,6,17,398
50,6,17.5,398
50,6,18,402
50,6,18.5,402
50,6,19,407
50,6,19.5,407
50,6,20,412
50,6,20.5,412
50,6,21,416
50,6,21.5,416
50,6,22,421
50,6,22.5,421
50,6,23,427
50,6,23.5,427
50,6,24,433
50,6,24.5,433
50,6,25,437
50,6,25.5,437
50,6,26,443
50,6,26.5,443
50,6,27,450
50,6,27.5,450
50,6,28,457
50,6,28.5,457
50,6,29,465
50,6,29.5,465
50,6,30,470
50,6,30.5,470
50,6,31,477
50,6,31.5,477
50,6,32,485
50,6,32.5,485
50,6,33,494
50,6,33.5,494
50,6,34,499
50,6,34.5,499
50,6,35,508
50,6,35.5,508
50,6,36,517
50,6,36.5,517
50,6,37,526
50,6,37.5,526
50,6,38,536
50,6,38.5,536
50,6,39,543
50,6,39.5,543
50,6,40,553
50,6,40.5,553
50,6,41,563
50,6,41.5,563
50,6,42,574
50,6,42.5,574
50,6,43,581
50,6,43.5,581
50,6,44,592
50,6,44.5,592
50,6,45,603
50,6,45.5,603
50,6,46,615
50,6,46.5,615
50,6,47,627
50,6,47.5,627
50,6,48,635
50,6,48.5,635
50,6,49,647
50,6,49.5,647
50,6,50,660
50,6,50.5,660
50,6,51,673
50,6,51.5,673
50,6,52,681
50,6,52.5,681
50,6,53,695
50,6,53.5,695
50,6,54,708
50,6,54.5,708
50,6,55,722
50,6,55.5,722
50,6,56,736
50,6,56.5,736
50,6,57,746
50,6,57.5,746
50,6,58,761
50,6,58.5,761
50,6,59,776
50,6,59.5,776
50,6,60,791
50,6,60.5,791
50,6.5,0,393
50,6.5,0.5,393
50,6.5,1,393
50,6.5,1.5,393
50,6.5,2,393
50,6.5,2.5,393
50,6.5,3,394
50,6.5,3.5,394
50,6.5,4,394
50,6.5,4.5,394
50,6.5,5,396
50,6.5,5.5,396
50,6.5,6,397
50,6.5,6.5,397
50,6.5,7,398
50,6.5,7.5,398
50,6.5,8,400
50,6.5,8.5,400
50,6.5,9,402
50,6.5,9.5,402
50,6.5,10,405
50,6.5,10.5,405
50,6.5,11,407
50,6.5,11.5,407
50,6.5,12,409
50,6.5,12.5,409
50,6.5,13,412
50,6.5,13.5,412
50,6.5,14,416
50,6.5,14.5,416
50,6.5,15,420
50,6.5,15.5,420
50,6.5,16,422
50,6.5,16.5,422
50,6.5,17,426
50,6.5,17.5,426
50,6.5,18,431
50,6.5,18.5,431
50,6.5,19,436
50,6.5,19.5,436
50,6.5,20,441
50,6.5,20.5,441
50,6.5,21,444
50,6.5,21.5,444
50,6.5,22,450
50,6.5,22.5,450
50,6.5,23,450
50,6.5,23.5,455
50,6.5,24,461
50,6.5,24.5,461
50,6.5,25,465
50,6.5,25.5,465
50,6.5,26,472
50,6.5,26.5,472
50,6.5,27,479
50,6.5,27.5,479
50,6.5,28,486
50,6.5,28.5,486
50,6.5,29,493
50,6.5,29.5,493
50,6.5,30,498
50,6.5,30.5,498
50,6.5,31,506
50,6.5,31.5,506
50,6.5,32,514
50,6.5,32.5,514
50,6.5,33,522
50,6.5,33.5,522
50,6.5,34,528
50,6.5,34.5,528
50,6.5,35,537
50,6.5,35.5,537
50,6.5,36,546
50,6.5,36.5,546
50,6.5,37,555
50,6.5,37.5,555
50,6.5,38,564
50,6.5,38.5,564
50,6.5,39,571
50,6.5,39.5,571
50,6.5,40,581
50,6.5,40.5,581
50,6.5,41,591
50,6.5,41.5,591
50,6.5,42,602
50,6.5,42.5,602
50,6.5,43,609
50,6.5,43.5,609
50,6.5,44,620
50,6.5,44.5,620
50,6.5,45,632
50,6.5,45.5,632
50,6.5,46,643
50,6.5,46.5,643
50,6.5,47,655
50,6.5,47.5,655
50,6.5,48,663
50,6.5,48.5,663
50,6.5,49,676
50,6.5,49.5,676
50,6.5,50,688
50,6.5,50.5,688
50,6.5,51,701
50,6.5,51.5,701
50,6.5,52,710
50,6.5,52.5,710
50,6.5,53,723
50,6.5,53.5,723
50,6.5,54,737
50,6.5,54.5,737
50,6.5,55,751
50,6.5,55.5,751
50,6.5,56,765
50,6.5,56.5,765
50,6.5,57,775
50,6.5,57.5,775
50,6.5,58,789
50,6.5,58.5,789
50,6.5,59,804
50,6.5,59.5,804
50,6.5,60,819
50,6.5,60.5,819
50,7,0,421
50,7,0.5,421
50,7,1,421
50,7,1.5,421
50,7,2,422
50,7,2.5,422
50,7,3,422
50,7,3.5,422
50,7,4,423
50,7,4.5,423
50,7,5,424
50,7,5.5,424
50,7,6,425
50,7,6.5,425
50,7,7,427
50,7,7.5,427
50,7,8,428
50,7,8.5,428
50,7,9,431
50,7,9.5,431
50,7,10,433
50,7,10.5,433
50,7,11,436
50,7,11.5,436
50,7,12,438
50,7,12.5,438
50,7,13,441
50,7,13.5,441
50,7,14,444
50,7,14.5,444
50,7,15,448
50,7,15.5,448
50,7,16,451
50,7,16.5,451
50,7,17,455
50,7,17.5,455
50,7,18,459
50,7,18.5,459
50,7,19,464
50,7,19.5,464
50,7,20,469
50,7,20.5,469
50,7,21,472
50,7,21.5,472
50,7,22,478
50,7,22.5,478
50,7,23,484
50,7,23.5,484
50,7,24,490
50,7,24.5,490
50,7,25,494
50,7,25.5,494
50,7,26,500
50,7,26.5,500
50,7,27,507
50,7,27.5,507
50,7,28,514
50,7,28.5,514
50,7,29,521
50,7,29.5,521
50,7,30,526
50,7,30.5,526
50,7,31,534
50,7,31.5,534
50,7,32,542
50,7,32.5,542
50,7,33,551
50,7,33.5,551
50,7,34,556
50,7,34.5,556
50,7,35,565
50,7,35.5,565
50,7,36,574
50,7,36.5,574
50,7,37,583
50,7,37.5,583
50,7,38,593
50,7,38.5,593
50,7,39,599
50,7,39.5,599
50,7,40,610
50,7,40.5,610
50,7,41,620
50,7,41.5,620
50,7,42,630
50,7,42.5,630
50,7,43,638
50,7,43.5,638
50,7,44,649
50,7,44.5,649
50,7,45,660
50,7,45.5,660
50,7,46,672
50,7,46.5,672
50,7,47,684
50,7,47.5,684
50,7,48,692
50,7,48.5,692
50,7,49,704
50,7,49.5,704
50,7,50,717
50,7,50.5,717
50,7,51,730
50,7,51.5,730
50,7,52,738
50,7,52.5,738
50,7,53,752
50,7,53.5,752
50,7,54,765
50,7,54.5,765
50,7,55,779
50,7,55.5,779
50,7,56,793
50,7,56.5,793
50,7,57,803
50,7,57.5,803
50,7,58,818
50,7,58.5,818
50,7,59,833
50,7,59.5,833
50,7,60,848
50,7,60.5,848
50,7.5,0,449
50,7.5,0.5,449
50,7.5,1,450
50,7.5,1.5,450
50,7.5,2,450
50,7.5,2.5,450
50,7.5,3,450
50,7.5,3.5,450
50,7.5,4,451
50,7.5,4.5,451
50,7.5,5,452
50,7.5,5.5,452
50,7.5,6,454
50,7.5,6.5,454
50,7.5,7,455
50,7.5,7.5,455
50,7.5,8,457
50,7.5,8.5,457
50,7.5,9,459
50,7.5,9.5,459
50,7.5,10,461
50,7.5,10.5,461
50,7.5,11,464
50,7.5,11.5,464
50,7.5,12,466
50,7.5,12.5,466
50,7.5,13,469
50,7.5,13.5,469
50,7.5,14,473
50,7.5,14.5,473
50,7.5,15,476
50,7.5,15.5,476
50,7.5,16,479
50,7.5,16.5,479
50,7.5,17,483
50,7.5,17.5,483
50,7.5,18,488
50,7.5,18.5,488
50,7.5,19,492
50,7.5,19.5,492
50,7.5,20,497
50,7.5,20.5,497
50,7.5,21,501
50,7.5,21.5,501
50,7.5,22,506
50,7.5,22.5,506
50,7.5,23,512
50,7.5,23.5,512
50,7.5,24,518
50,7.5,24.5,518
50,7.5,25,522
50,7.5,25.5,522
50,7.5,26,529
50,7.5,26.5,529
50,7.5,27,536
50,7.5,27.5,536
50,7.5,28,543
50,7.5,28.5,543
50,7.5,29,550
50,7.5,29.5,550
50,7.5,30,555
50,7.5,30.5,555
50,7.5,31,563
50,7.5,31.5,563
50,7.5,32,571
50,7.5,32.5,571
50,7.5,33,579
50,7.5,33.5,579
50,7.5,34,585
50,7.5,34.5,585
50,7.5,35,593
50,7.5,35.5,593
50,7.5,36,602
50,7.5,36.5,602
50,7.5,37,612
50,7.5,37.5,612
50,7.5,38,621
50,7.5,38.5,621
50,7.5,39,628
50,7.5,39.5,628
50,7.5,40,638
50,7.5,40.5,638
50,7.5,41,648
50,7.5,41.5,648
50,7.5,42,659
50,7.5,42.5,659
50,7.5,43,666
50,7.5,43.5,666
50,7.5,44,677
50,7.5,44.5,677
50,7.5,45,689
50,7.5,45.5,689
50,7.5,46,700
50,7.5,46.5,700
50,7.5,47,712
50,7.5,47.5,712
50,7.5,48,720
50,7.5,48.5,720
50,7.5,49,732
50,7.5,49.5,732
50,7.5,50,745
50,7.5,50.5,745
50,7.5,51,758
50,7.5,51.5,758
50,7.5,52,767
50,7.5,52.5,767
50,7.5,53,780
50,7.5,53.5,780
50,7.5,54,794
50,7.5,54.5,794
50,7.5,55,808
50,7.5,55.5,808
50,7.5,56,822
50,7.5,56.5,822
50,7.5,57,831
50,7.5,57.5,831
50,7.5,58,846
50,7.5,58.5,846
50,7.5,59,861
50,7.5,59.5,861
50,7.5,60,876
50,7.5,60.5,876
50,8,0,478
50,8,0.5,478
50,8,1,478
50,8,1.5,478
50,8,2,478
50,8,2.5,478
50,8,3,479
50,8,3.5,479
50,8,4,480
50,8,4.5,480
50,8,5,481
50,8,5.5,481
50,8,6,482
50,8,6.5,482
50,8,7,483
50,8,7.5,483
50,8,8,485
50,8,8.5,485
50,8,9,487
50,8,9.5,487
50,8,10,490
50,8,10.5,490
50,8,11,493
50,8,11.5,493
50,8,12,495
50,8,12.5,495
50,8,13,498
50,8,13.5,498
50,8,14,501
50,8,14.5,501
50,8,15,505
50,8,15.5,505
50,8,16,508
50,8,16.5,508
50,8,17,512
50,8,17.5,512
50,8,18,516
50,8,18.5,516
50,8,19,521
50,8,19.5,521
50,8,20,526
50,8,20.5,526
50,8,21,529
50,8,21.5,529
50,8,22,535
50,8,22.5,535
50,8,23,541
50,8,23.5,541
50,8,24,547
50,8,24.5,547
50,8,25,551
50,8,25.5,551
50,8,26,557
50,8,26.5,557
50,8,27,564
50,8,27.5,564
50,8,28,571
50,8,28.5,571
50,8,29,578
50,8,29.5,578
50,8,30,583
50,8,30.5,583
50,8,31,591
50,8,31.5,591
50,8,32,599
50,8,32.5,599
50,8,33,607
50,8,33.5,607
50,8,34,613
50,8,34.5,613
50,8,35,622
50,8,35.5,622
50,8,36,631
50,8,36.5,631
50,8,37,640
50,8,37.5,640
50,8,38,650
50,8,38.5,650
50,8,39,656
50,8,39.5,656
50,8,40,666
50,8,40.5,666
50,8,41,677
50,8,41.5,677
50,8,42,687
50,8,42.5,687
50,8,43,695
50,8,43.5,695
50,8,44,706
50,8,44.5,706
50,8,45,717
50,8,45.5,717
50,8,46,729
50,8,46.5,729
50,8,47,740
50,8,47.5,740
50,8,48,749
50,8,48.5,749
50,8,49,761
50,8,49.5,761
50,8,50,774
50,8,50.5,774
50,8,51,786
50,8,51.5,786
50,8,52,795
50,8,52.5,795
50,8,53,809
50,8,53.5,809
50,8,54,822
50,8,54.5,822
50,8,55,836
50,8,55.5,836
50,8,56,850
50,8,56.5,850
50,8,57,860
50,8,57.5,860
50,8,58,875
50,8,58.5,875
50,8,59,889
50,8,59.5,889
50,8,60,905
50,8,60.5,905
50,8.5,0,506
50,8.5,0.5,506
50,8.5,1,507
50,8.5,1.5,507
50,8.5,2,507
50,8.5,2.5,507
50,8.5,3,507
50,8.5,3.5,507
50,8.5,4,508
50,8.5,4.5,508
50,8.5,5,509
50,8.5,5.5,509
50,8.5,6,511
50,8.5,6.5,511
50,8.5,7,512
50,8.5,7.5,512
50,8.5,8,514
50,8.5,8.5,514
50,8.5,9,516
50,8.5,9.5,516
50,8.5,10,518
50,8.5,10.5,518
50,8.5,11,521
50,8.5,11.5,521
50,8.5,12,523
50,8.5,12.5,523
50,8.5,13,526
50,8.5,13.5,526
50,8.5,14,530
50,8.5,14.5,530
50,8.5,15,533
50,8.5,15.5,533
50,8.5,16,536
50,8.5,16.5,536
50,8.5,17,540
50,8.5,17.5,540
50,8.5,18,545
50,8.5,18.5,545
50,8.5,19,549
50,8.5,19.5,549
50,8.5,20,554
50,8.5,20.5,554
50,8.5,21,558
50,8.5,21.5,558
50,8.5,22,563
50,8.5,22.5,563
50,8.5,23,569
50,8.5,23.5,569
50,8.5,24,575
50,8.5,24.5,575
50,8.5,25,579
50,8.5,25.5,579
50,8.5,26,586
50,8.5,26.5,586
50,8.5,27,592
50,8.5,27.5,592
50,8.5,28,599
50,8.5,28.5,599
50,8.5,29,607
50,8.5,29.5,607
50,8.5,30,612
50,8.5,30.5,612
50,8.5,31,620
50,8.5,31.5,620
50,8.5,32,628
50,8.5,32.5,628
50,8.5,33,636
50,8.5,33.5,636
50,8.5,34,642
50,8.5,34.5,642
50,8.5,35,650
50,8.5,35.5,650
50,8.5,36,659
50,8.5,36.5,659
50,8.5,37,669
50,8.5,37.5,669
50,8.5,38,678
50,8.5,38.5,678
50,8.5,39,685
50,8.5,39.5,685
50,8.5,40,695
50,8.5,40.5,695
50,8.5,41,705
50,8.5,41.5,705
50,8.5,42,716
50,8.5,42.5,716
50,8.5,43,723
50,8.5,43.5,723
50,8.5,44,734
50,8.5,44.5,734
50,8.5,45,745
50,8.5,45.5,745
50,8.5,46,757
50,8.5,46.5,757
50,8.5,47,769
50,8.5,47.5,769
50,8.5,48,777
50,8.5,48.5,777
50,8.5,49,789
50,8.5,49.5,789
50,8.5,50,802
50,8.5,50.5,802
50,8.5,51,815
50,8.5,51.5,815
50,8.5,52,824
50,8.5,52.5,824
50,8.5,53,837
50,8.5,53.5,837
50,8.5,54,851
50,8.5,54.5,851
50,8.5,55,865
50,8.5,55.5,865
50,8.5,56,879
50,8.5,56.5,879
50,8.5,57,888
50,8.5,57.5,888
50,8.5,58,903
50,8.5,58.5,903
50,8.5,59,918
50,8.5,59.5,918
50,8.5,60,933
50,8.5,60.5,933
50,9,0,535
50,9,0.5,535
50,9,1,535
50,9,1.5,535
50,9,2,535
50,9,2.5,535
50,9,3,536
50,9,3.5,536
50,9,4,537
50,9,4.5,537
50,9,5,538
50,9,5.5,538
50,9,6,539
50,9,6.5,539
50,9,7,540
50,9,7.5,540
50,9,8,542
50,9,8.5,542
50,9,9,544
50,9,9.5,544
50,9,10,547
50,9,10.5,547
50,9,11,550
50,9,11.5,550
50,9,12,551
50,9,12.5,551
50,9,13,555
50,9,13.5,555
50,9,14,558
50,9,14.5,558
50,9,15,562
50,9,15.5,562
50,9,16,564
50,9,16.5,564
50,9,17,569
50,9,17.5,569
50,9,18,573
50,9,18.5,573
50,9,19,578
50,9,19.5,578
50,9,20,583
50,9,20.5,583
50,9,21,586
50,9,21.5,586
50,9,22,592
50,9,22.5,592
50,9,23,597
50,9,23.5,597
50,9,24,604
50,9,24.5,604
50,9,25,608
50,9,25.5,608
50,9,26,614
50,9,26.5,614
50,9,27,621
50,9,27.5,621
50,9,28,628
50,9,28.5,628
50,9,29,635
50,9,29.5,635
50,9,30,640
50,9,30.5,640
50,9,31,648
50,9,31.5,648
50,9,32,656
50,9,32.5,656
50,9,33,664
50,9,33.5,664
50,9,34,670
50,9,34.5,670
50,9,35,679
50,9,35.5,679
50,9,36,688
50,9,36.5,688
50,9,37,697
50,9,37.5,697
50,9,38,707
50,9,38.5,707
50,9,39,713
50,9,39.5,713
50,9,40,723
50,9,40.5,723
50,9,41,734
50,9,41.5,734
50,9,42,744
50,9,42.5,744
50,9,43,751
50,9,43.5,751
50,9,44,763
50,9,44.5,763
50,9,45,774
50,9,45.5,774
50,9,46,786
50,9,46.5,786
50,9,47,797
50,9,47.5,797
50,9,48,805
50,9,48.5,805
50,9,49,818
50,9,49.5,818
50,9,50,830
50,9,50.5,830
50,9,51,843
50,9,51.5,843
50,9,52,852
50,9,52.5,852
50,9,53,865
50,9,53.5,865
50,9,54,879
50,9,54.5,879
50,9,55,893
50,9,55.5,893
50,9,56,907
50,9,56.5,907
50,9,57,917
50,9,57.5,917
50,9,58,931
50,9,58.5,931
50,9,59,946
50,9,59.5,946
50,9,60,962
50,9,60.5,962
50,9.5,0,563
50,9.5,0.5,563
50,9.5,1,563
50,9.5,1.5,563
50,9.5,2,564
50,9.5,2.5,564
50,9.5,3,564
50,9.5,3.5,564
50,9.5,4,565
50,9.5,4.5,565
50,9.5,5,566
50,9.5,5.5,566
50,9.5,6,568
50,9.5,6.5,568
50,9.5,7,569
50,9.5,7.5,569
50,9.5,8,571
50,9.5,8.5,571
50,9.5,9,573
50,9.5,9.5,573
50,9.5,10,575
50,9.5,10.5,575
50,9.5,11,578
50,9.5,11.5,578
50,9.5,12,580
50,9.5,12.5,580
50,9.5,13,583
50,9.5,13.5,583
50,9.5,14,587
50,9.5,14.5,587
50,9.5,15,590
50,9.5,15.5,590
50,9.5,16,593
50,9.5,16.5,593
50,9.5,17,597
50,9.5,17.5,597
50,9.5,18,602
50,9.5,18.5,602
50,9.5,19,606
50,9.5,19.5,606
50,9.5,20,611
50,9.5,20.5,611
50,9.5,21,615
50,9.5,21.5,615
50,9.5,22,620
50,9.5,22.5,620
50,9.5,23,626
50,9.5,23.5,626
50,9.5,24,632
50,9.5,24.5,632
50,9.5,25,636
50,9.5,25.5,636
50,9.5,26,643
50,9.5,26.5,643
50,9.5,27,649
50,9.5,27.5,649
50,9.5,28,656
50,9.5,28.5,656
50,9.5,29,664
50,9.5,29.5,664
50,9.5,30,669
50,9.5,30.5,669
50,9.5,31,676
50,9.5,31.5,676
50,9.5,32,684
50,9.5,32.5,684
50,9.5,33,693
50,9.5,33.5,693
50,9.5,34,698
50,9.5,34.5,698
50,9.5,35,707
50,9.5,35.5,707
50,9.5,36,716
50,9.5,36.5,716
50,9.5,37,726
50,9.5,37.5,726
50,9.5,38,735
50,9.5,38.5,735
50,9.5,39,742
50,9.5,39.5,742
50,9.5,40,752
50,9.5,40.5,752
50,9.5,41,762
50,9.5,41.5,762
50,9.5,42,773
50,9.5,42.5,773
50,9.5,43,780
50,9.5,43.5,780
50,9.5,44,791
50,9.5,44.5,791
50,9.5,45,802
50,9.5,45.5,802
50,9.5,46,814
50,9.5,46.5,814
50,9.5,47,826
50,9.5,47.5,826
50,9.5,48,834
50,9.5,48.5,834
50,9.5,49,846
50,9.5,49.5,846
50,9.5,50,859
50,9.5,50.5,859
50,9.5,51,872
50,9.5,51.5,872
50,9.5,52,881
50,9.5,52.5,881
50,9.5,53,894
50,9.5,53.5,894
50,9.5,54,908
50,9.5,54.5,908
50,9.5,55,921
50,9.5,55.5,921
50,9.5,56,936
50,9.5,56.5,936
50,9.5,57,945
50,9.5,57.5,945
50,9.5,58,960
50,9.5,58.5,960
50,9.5,59,975
50,9.5,59.5,975
50,9.5,60,990
50,9.5,60.5,990
50,10,0,592
50,10,0.5,592
50,10,1,592
50,10,1.5,592
50,10,2,592
50,10,2.5,592
50,10,3,593
50,10,3.5,593
50,10,4,594
50,10,4.5,594
50,10,5,595
50,10,5.5,595
50,10,6,596
50,10,6.5,596
50,10,7,597
50,10,7.5,597
50,10,8,599
50,10,8.5,599
50,10,9,601
50,10,9.5,601
50,10,10,604
50,10,10.5,604
50,10,11,606
50,10,11.5,606
50,10,12,608
50,10,12.5,608
50,10,13,612
50,10,13.5,612
50,10,14,615
50,10,14.5,615
50,10,15,619
50,10,15.5,619
50,10,16,621
50,10,16.5,621
50,10,17,626
50,10,17.5,626
50,10,18,630
50,10,18.5,630
50,10,19,635
50,10,19.5,635
50,10,20,640
50,10,20.5,640
50,10,21,643
50,10,21.5,643
50,10,22,649
50,10,22.5,649
50,10,23,654
50,10,23.5,654
50,10,24,660
50,10,24.5,660
50,10,25,665
50,10,25.5,665
50,10,26,671
50,10,26.5,671
50,10,27,678
50,10,27.5,678
50,10,28,685
50,10,28.5,685
50,10,29,692
50,10,29.5,692
50,10,30,697
50,10,30.5,697
50,10,31,705
50,10,31.5,705
50,10,32,713
50,10,32.5,713
50,10,33,721
50,10,33.5,721
50,10,34,727
50,10,34.5,727
50,10,35,736
50,10,35.5,736
50,10,36,745
50,10,36.5,745
50,10,37,754
50,10,37.5,754
50,10,38,764
50,10,38.5,764
50,10,39,770
50,10,39.5,770
50,10,40,780
50,10,40.5,780
50,10,41,791
50,10,41.5,791
50,10,42,801
50,10,42.5,801
50,10,43,808
50,10,43.5,808
50,10,44,819
50,10,44.5,819
50,10,45,831
50,10,45.5,831
50,10,46,842
50,10,46.5,842
50,10,47,854
50,10,47.5,854
50,10,48,862
50,10,48.5,862
50,10,49,875
50,10,49.5,875
50,10,50,887
50,10,50.5,887
50,10,51,900
50,10,51.5,900
50,10,52,909
50,10,52.5,909
50,10,53,922
50,10,53.5,922
50,10,54,936
50,10,54.5,936
50,10,55,950
50,10,55.5,950
50,10,56,964
50,10,56.5,964
50,10,57,974
50,10,57.5,974
50,10,58,988
50,10,58.5,988
50,10,59,1003
50,10,59.5,1003
50,10,60,1018
50,10,60.5,1018
50,10.5,0,592
50,10.5,0.5,620
50,10.5,1,620
50,10.5,1.5,620
50,10.5,2,621
50,10.5,2.5,621
50,10.5,3,621
50,10.5,3.5,621
50,10.5,4,622
50,10.5,4.5,622
50,10.5,5,623
50,10.5,5.5,623
50,10.5,6,625
50,10.5,6.5,625
50,10.5,7,626
50,10.5,7.5,626
50,10.5,8,628
50,10.5,8.5,628
50,10.5,9,630
50,10.5,9.5,630
50,10.5,10,632
50,10.5,10.5,632
50,10.5,11,635
50,10.5,11.5,635
50,10.5,12,637
50,10.5,12.5,637
50,10.5,13,640
50,10.5,13.5,640
50,10.5,14,643
50,10.5,14.5,643
50,10.5,15,647
50,10.5,15.5,647
50,10.5,16,650
50,10.5,16.5,650
50,10.5,17,654
50,10.5,17.5,654
50,10.5,18,658
50,10.5,18.5,658
50,10.5,19,663
50,10.5,19.5,663
50,10.5,20,668
50,10.5,20.5,668
50,10.5,21,672
50,10.5,21.5,672
50,10.5,22,677
50,10.5,22.5,677
50,10.5,23,683
50,10.5,23.5,683
50,10.5,24,689
50,10.5,24.5,689
50,10.5,25,693
50,10.5,25.5,693
50,10.5,26,699
50,10.5,26.5,699
50,10.5,27,706
50,10.5,27.5,706
50,10.5,28,713
50,10.5,28.5,713
50,10.5,29,721
50,10.5,29.5,721
50,10.5,30,726
50,10.5,30.5,726
50,10.5,31,733
50,10.5,31.5,733
50,10.5,32,741
50,10.5,32.5,741
50,10.5,33,750
50,10.5,33.5,750
50,10.5,34,755
50,10.5,34.5,755
50,10.5,35,764
50,10.5,35.5,764
50,10.5,36,773
50,10.5,36.5,773
50,10.5,37,782
50,10.5,37.5,782
50,10.5,38,792
50,10.5,38.5,792
50,10.5,39,799
50,10.5,39.5,799
50,10.5,40,809
50,10.5,40.5,809
50,10.5,41,819
50,10.5,41.5,819
50,10.5,42,830
50,10.5,42.5,830
50,10.5,43,837
50,10.5,43.5,837
50,10.5,44,848
50,10.5,44.5,848
50,10.5,45,859
50,10.5,45.5,859
50,10.5,46,871
50,10.5,46.5,871
50,10.5,47,883
50,10.5,47.5,883
50,10.5,48,891
50,10.5,48.5,891
50,10.5,49,903
50,10.5,49.5,903
50,10.5,50,916
50,10.5,50.5,916
50,10.5,51,929
50,10.5,51.5,929
50,10.5,52,937
50,10.5,52.5,937
50,10.5,53,951
50,10.5,53.5,951
50,10.5,54,964
50,10.5,54.5,964
50,10.5,55,978
50,10.5,55.5,978
50,10.5,56,993
50,10.5,56.5,993
50,10.5,57,1002
50,10.5,57.5,1002
50,10.5,58,1017
50,10.5,58.5,1017
50,10.5,59,1032
50,10.5,59.5,1032
50,10.5,60,1047
50,10.5,60.5,1047
50,11,0,649
50,11,0.5,649
50,11,1,649
50,11,1.5,649
50,11,2,649
50,11,2.5,649
50,11,3,650
50,11,3.5,650
50,11,4,650
50,11,4.5,650
50,11,5,652
50,11,5.5,652
50,11,6,653
50,11,6.5,653
50,11,7,654
50,11,7.5,654
50,11,8,656
50,11,8.5,656
50,11,9,658
50,11,9.5,658
50,11,10,661
50,11,10.5,661
50,11,11,663
50,11,11.5,663
50,11,12,665
50,11,12.5,665
50,11,13,668
50,11,13.5,668
50,11,14,672
50,11,14.5,672
50,11,15,676
50,11,15.5,676
50,11,16,678
50,11,16.5,678
50,11,17,682
50,11,17.5,682
50,11,18,687
50,11,18.5,687
50,11,19,692
50,11,19.5,692
50,11,20,697
50,11,20.5,697
50,11,21,700
50,11,21.5,700
50,11,22,706
50,11,22.5,706
50,11,23,711
50,11,23.5,711
50,11,24,717
50,11,24.5,717
50,11,25,721
50,11,25.5,721
50,11,26,728
50,11,26.5,728
50,11,27,735
50,11,27.5,735
50,11,28,742
50,11,28.5,742
50,11,29,749
50,11,29.5,749
50,11,30,754
50,11,30.5,754
50,11,31,762
50,11,31.5,762
50,11,32,770
50,11,32.5,770
50,11,33,778
50,11,33.5,778
50,11,34,784
50,11,34.5,784
50,11,35,793
50,11,35.5,793
50,11,36,802
50,11,36.5,802
50,11,37,811
50,11,37.5,811
50,11,38,821
50,11,38.5,821
50,11,39,827
50,11,39.5,827
50,11,40,837
50,11,40.5,837
50,11,41,847
50,11,41.5,847
50,11,42,858
50,11,42.5,858
50,11,43,865
50,11,43.5,865
50,11,44,876
50,11,44.5,876
50,11,45,888
50,11,45.5,888
50,11,46,899
50,11,46.5,899
50,11,47,911
50,11,47.5,911
50,11,48,919
50,11,48.5,919
50,11,49,932
50,11,49.5,932
50,11,50,944
50,11,50.5,944
50,11,51,957
50,11,51.5,957
50,11,52,966
50,11,52.5,966
50,11,53,979
50,11,53.5,979
50,11,54,993
50,11,54.5,993
50,11,55,1007
50,11,55.5,1007
50,11,56,1021
50,11,56.5,1021
50,11,57,1031
50,11,57.5,1031
50,11,58,1045
50,11,58.5,1045
50,11,59,1060
50,11,59.5,1060
50,11,60,1075
50,11,60.5,1075
50,11.5,0,677
50,11.5,0.5,677
50,11.5,1,677
50,11.5,1.5,677
50,11.5,2,678
50,11.5,2.5,678
50,11.5,3,678
50,11.5,3.5,678
50,11.5,4,679
50,11.5,4.5,679
50,11.5,5,680
50,11.5,5.5,680
50,11.5,6,681
50,11.5,6.5,681
50,11.5,7,683
50,11.5,7.5,683
50,11.5,8,684
50,11.5,8.5,684
50,11.5,9,687
50,11.5,9.5,687
50,11.5,10,689
50,11.5,10.5,689
50,11.5,11,692
50,11.5,11.5,692
50,11.5,12,694
50,11.5,12.5,694
50,11.5,13,697
50,11.5,13.5,697
50,11.5,14,700
50,11.5,14.5,700
50,11.5,15,704
50,11.5,15.5,704
50,11.5,16,707
50,11.5,16.5,707
50,11.5,17,711
50,11.5,17.5,711
50,11.5,18,715
50,11.5,18.5,715
50,11.5,19,720
50,11.5,19.5,720
50,11.5,20,725
50,11.5,20.5,725
50,11.5,21,729
50,11.5,21.5,729
50,11.5,22,734
50,11.5,22.5,734
50,11.5,23,740
50,11.5,23.5,740
50,11.5,24,746
50,11.5,24.5,746
50,11.5,25,750
50,11.5,25.5,750
50,11.5,26,756
50,11.5,26.5,756
50,11.5,27,763
50,11.5,27.5,763
50,11.5,28,770
50,11.5,28.5,770
50,11.5,29,777
50,11.5,29.5,777
50,11.5,30,782
50,11.5,30.5,782
50,11.5,31,790
50,11.5,31.5,790
50,11.5,32,798
50,11.5,32.5,798
50,11.5,33,807
50,11.5,33.5,807
50,11.5,34,812
50,11.5,34.5,812
50,11.5,35,821
50,11.5,35.5,821
50,11.5,36,830
50,11.5,36.5,830
50,11.5,37,839
50,11.5,37.5,839
50,11.5,38,849
50,11.5,38.5,849
50,11.5,39,856
50,11.5,39.5,856
50,11.5,40,866
50,11.5,40.5,866
50,11.5,41,876
50,11.5,41.5,876
50,11.5,42,887
50,11.5,42.5,887
50,11.5,43,894
50,11.5,43.5,894
50,11.5,44,905
50,11.5,44.5,905
50,11.5,45,916
50,11.5,45.5,916
50,11.5,46,928
50,11.5,46.5,928
50,11.5,47,940
50,11.5,47.5,940
50,11.5,48,948
50,11.5,48.5,948
50,11.5,49,960
50,11.5,49.5,960
50,11.5,50,973
50,11.5,50.5,973
50,11.5,51,986
50,11.5,51.5,986
50,11.5,52,994
50,11.5,52.5,994
50,11.5,53,1008
50,11.5,53.5,1008
50,11.5,54,1021
50,11.5,54.5,1021
50,11.5,55,1035
50,11.5,55.5,1035
50,11.5,56,1049
50,11.5,56.5,1049
50,11.5,57,1059
50,11.5,57.5,1059
50,11.5,58,1074
50,11.5,58.5,1074
50,11.5,59,1089
50,11.5,59.5,1089
50,11.5,60,1104
50,11.5,60.5,1104
50,12,0,677
50,12,0.5,706
50,12,1,706
50,12,1.5,706
50,12,2,706
50,12,2.5,706
50,12,3,706
50,12,3.5,706
50,12,4,707
50,12,4.5,707
50,12,5,709
50,12,5.5,709
50,12,6,710
50,12,6.5,710
50,12,7,711
50,12,7.5,711
50,12,8,713
50,12,8.5,713
50,12,9,715
50,12,9.5,715
50,12,10,718
50,12,10.5,718
50,12,11,720
50,12,11.5,720
50,12,12,722
50,12,12.5,722
50,12,13,725
50,12,13.5,725
50,12,14,729
50,12,14.5,729
50,12,15,733
50,12,15.5,733
50,12,16,735
50,12,16.5,735
50,12,17,739
50,12,17.5,739
50,12,18,744
50,12,18.5,744
50,12,19,748
50,12,19.5,748
50,12,20,754
50,12,20.5,754
50,12,21,757
50,12,21.5,757
50,12,22,762
50,12,22.5,762
50,12,23,768
50,12,23.5,768
50,12,24,774
50,12,24.5,774
50,12,25,778
50,12,25.5,778
50,12,26,785
50,12,26.5,785
50,12,27,792
50,12,27.5,792
50,12,28,799
50,12,28.5,799
50,12,29,806
50,12,29.5,806
50,12,30,811
50,12,30.5,811
50,12,31,819
50,12,31.5,819
50,12,32,827
50,12,32.5,827
50,12,33,835
50,12,33.5,835
50,12,34,841
50,12,34.5,841
50,12,35,849
50,12,35.5,849
50,12,36,859
50,12,36.5,859
50,12,37,868
50,12,37.5,868
50,12,38,877
50,12,38.5,877
50,12,39,884
50,12,39.5,884
50,12,40,894
50,12,40.5,894
50,12,41,904
50,12,41.5,904
50,12,42,915
50,12,42.5,915
50,12,43,922
50,12,43.5,922
50,12,44,933
50,12,44.5,933
50,12,45,945
50,12,45.5,945
50,12,46,956
50,12,46.5,956
50,12,47,968
50,12,47.5,968
50,12,48,976
50,12,48.5,976
50,12,49,989
50,12,49.5,989
50,12,50,1001
50,12,50.5,1001
50,12,51,1014
50,12,51.5,1014
50,12,52,1023
50,12,52.5,1023
50,12,53,1036
50,12,53.5,1036
50,12,54,1050
50,12,54.5,1050
50,12,55,1064
50,12,55.5,1064
50,12,56,1078
50,12,56.5,1078
50,12,57,1087
50,12,57.5,1087
50,12,58,1102
50,12,58.5,1102
50,12,59,1117
50,12,59.5,1117
50,12,60,1132
50,12,60.5,1132
50,12.5,0,706
50,12.5,0.5,734
50,12.5,1,734
50,12.5,1.5,734
50,12.5,2,735
50,12.5,2.5,735
50,12.5,3,735
50,12.5,3.5,735
50,12.5,4,736
50,12.5,4.5,736
50,12.5,5,737
50,12.5,5.5,737
50,12.5,6,738
50,12.5,6.5,738
50,12.5,7,739
50,12.5,7.5,739
50,12.5,8,741
50,12.5,8.5,741
50,12.5,9,744
50,12.5,9.5,744
50,12.5,10,746
50,12.5,10.5,746
50,12.5,11,749
50,12.5,11.5,749
50,12.5,12,751
50,12.5,12.5,751
50,12.5,13,754
50,12.5,13.5,754
50,12.5,14,757
50,12.5,14.5,757
50,12.5,15,761
50,12.5,15.5,761
50,12.5,16,764
50,12.5,16.5,764
50,12.5,17,768
50,12.5,17.5,768
50,12.5,18,772
50,12.5,18.5,772
50,12.5,19,777
50,12.5,19.5,777
50,12.5,20,782
50,12.5,20.5,782
50,12.5,21,785
50,12.5,21.5,785
50,12.5,22,791
50,12.5,22.5,791
50,12.5,23,797
50,12.5,23.5,797
50,12.5,24,803
50,12.5,24.5,803
50,12.5,25,807
50,12.5,25.5,807
50,12.5,26,813
50,12.5,26.5,813
50,12.5,27,820
50,12.5,27.5,820
50,12.5,28,827
50,12.5,28.5,827
50,12.5,29,834
50,12.5,29.5,834
50,12.5,30,839
50,12.5,30.5,839
50,12.5,31,847
50,12.5,31.5,847
50,12.5,32,855
50,12.5,32.5,855
50,12.5,33,863
50,12.5,33.5,863
50,12.5,34,869
50,12.5,34.5,869
50,12.5,35,878
50,12.5,35.5,878
50,12.5,36,887
50,12.5,36.5,887
50,12.5,37,896
50,12.5,37.5,896
50,12.5,38,906
50,12.5,38.5,906
50,12.5,39,912
50,12.5,39.5,912
50,12.5,40,922
50,12.5,40.5,922
50,12.5,41,933
50,12.5,41.5,933
50,12.5,42,943
50,12.5,42.5,943
50,12.5,43,951
50,12.5,43.5,951
50,12.5,44,962
50,12.5,44.5,962
50,12.5,45,973
50,12.5,45.5,973
50,12.5,46,985
50,12.5,46.5,985
50,12.5,47,997
50,12.5,47.5,997
50,12.5,48,1005
50,12.5,48.5,1005
50,12.5,49,1017
50,12.5,49.5,1017
50,12.5,50,1030
50,12.5,50.5,1030
50,12.5,51,1042
50,12.5,51.5,1042
50,12.5,52,1051
50,12.5,52.5,1051
50,12.5,53,1065
50,12.5,53.5,1065
50,12.5,54,1078
50,12.5,54.5,1078
50,12.5,55,1092
50,12.5,55.5,1092
50,12.5,56,1106
50,12.5,56.5,1106
50,12.5,57,1116
50,12.5,57.5,1116
50,12.5,58,1131
50,12.5,58.5,1131
50,12.5,59,1145
50,12.5,59.5,1145
50,12.5,60,1161
50,12.5,60.5,1161
50,13,0,1161
50,13,0.5,762
50,13,1,763
50,13,1.5,763
50,13,2,763
50,13,2.5,763
50,13,3,763
50,13,3.5,763
50,13,4,764
50,13,4.5,764
50,13,5,765
50,13,5.5,765
50,13,6,767
50,13,6.5,767
50,13,7,768
50,13,7.5,768
50,13,8,770
50,13,8.5,770
50,13,9,772
50,13,9.5,772
50,13,10,774
50,13,10.5,774
50,13,11,777
50,13,11.5,777
50,13,12,779
50,13,12.5,779
50,13,13,782
50,13,13.5,782
50,13,14,786
50,13,14.5,786
50,13,15,789
50,13,15.5,789
50,13,16,792
50,13,16.5,792
50,13,17,796
50,13,17.5,796
50,13,18,801
50,13,18.5,801
50,13,19,805
50,13,19.5,805
50,13,20,810
50,13,20.5,810
50,13,21,814
50,13,21.5,814
50,13,22,819
50,13,22.5,819
50,13,23,825
50,13,23.5,825
50,13,24,831
50,13,24.5,831
50,13,25,835
50,13,25.5,835
50,13,26,842
50,13,26.5,842
50,13,27,848
50,13,27.5,848
50,13,28,856
50,13,28.5,856
50,13,29,863
50,13,29.5,863
50,13,30,868
50,13,30.5,868
50,13,31,876
50,13,31.5,876
50,13,32,884
50,13,32.5,884
50,13,33,892
50,13,33.5,892
50,13,34,898
50,13,34.5,898
50,13,35,906
50,13,35.5,906
50,13,36,915
50,13,36.5,915
50,13,37,925
50,13,37.5,925
50,13,38,934
50,13,38.5,934
50,13,39,941
50,13,39.5,941
50,13,40,951
50,13,40.5,951
50,13,41,961
50,13,41.5,961
50,13,42,972
50,13,42.5,972
50,13,43,979
50,13,43.5,979
50,13,44,990
50,13,44.5,990
50,13,45,1001
50,13,45.5,1001
50,13,46,1013
50,13,46.5,1013
50,13,47,1025
50,13,47.5,1025
50,13,48,1033
50,13,48.5,1033
50,13,49,1045
50,13,49.5,1045
50,13,50,1058
50,13,50.5,1058
50,13,51,1071
50,13,51.5,1071
50,13,52,1080
50,13,52.5,1080
50,13,53,1093
50,13,53.5,1093
50,13,54,1107
50,13,54.5,1107
50,13,55,1121
50,13,55.5,1121
50,13,56,1135
50,13,56.5,1135
50,13,57,1144
50,13,57.5,1144
50,13,58,1159
50,13,58.5,1159
50,13,59,1174
50,13,59.5,1174
50,13,60,1189
50,13,60.5,1189
50,13.5,0,762
50,13.5,0.5,791
50,13.5,1,791
50,13.5,1.5,791
50,13.5,2,791
50,13.5,2.5,791
50,13.5,3,792
50,13.5,3.5,792
50,13.5,4,793
50,13.5,4.5,793
50,13.5,5,794
50,13.5,5.5,794
50,13.5,6,795
50,13.5,6.5,795
50,13.5,7,796
50,13.5,7.5,796
50,13.5,8,798
50,13.5,8.5,798
50,13.5,9,800
50,13.5,9.5,800
50,13.5,10,803
50,13.5,10.5,803
50,13.5,11,806
50,13.5,11.5,806
50,13.5,12,808
50,13.5,12.5,808
50,13.5,13,811
50,13.5,13.5,811
50,13.5,14,814
50,13.5,14.5,814
50,13.5,15,818
50,13.5,15.5,818
50,13.5,16,820
50,13.5,16.5,820
50,13.5,17,825
50,13.5,17.5,825
50,13.5,18,829
50,13.5,18.5,829
50,13.5,19,834
50,13.5,19.5,834
50,13.5,20,839
50,13.5,20.5,839
50,13.5,21,842
50,13.5,21.5,842
50,13.5,22,848
50,13.5,22.5,848
50,13.5,23,854
50,13.5,23.5,854
50,13.5,24,860
50,13.5,24.5,860
50,13.5,25,864
50,13.5,25.5,864
50,13.5,26,870
50,13.5,26.5,870
50,13.5,27,877
50,13.5,27.5,877
50,13.5,28,884
50,13.5,28.5,884
50,13.5,29,891
50,13.5,29.5,891
50,13.5,30,896
50,13.5,30.5,896
50,13.5,31,904
50,13.5,31.5,904
50,13.5,32,912
50,13.5,32.5,912
50,13.5,33,920
50,13.5,33.5,920
50,13.5,34,926
50,13.5,34.5,926
50,13.5,35,935
50,13.5,35.5,935
50,13.5,36,944
50,13.5,36.5,944
50,13.5,37,953
50,13.5,37.5,953
50,13.5,38,963
50,13.5,38.5,963
50,13.5,39,969
50,13.5,39.5,969
50,13.5,40,979
50,13.5,40.5,979
50,13.5,41,990
50,13.5,41.5,990
50,13.5,42,1000
50,13.5,42.5,1000
50,13.5,43,1008
50,13.5,43.5,1008
50,13.5,44,1019
50,13.5,44.5,1019
50,13.5,45,1030
50,13.5,45.5,1030
50,13.5,46,1042
50,13.5,46.5,1042
50,13.5,47,1053
50,13.5,47.5,1053
50,13.5,48,1062
50,13.5,48.5,1062
50,13.5,49,1074
50,13.5,49.5,1074
50,13.5,50,1086
50,13.5,50.5,1086
50,13.5,51,1099
50,13.5,51.5,1099
50,13.5,52,1108
50,13.5,52.5,1108
50,13.5,53,1121
50,13.5,53.5,1121
50,13.5,54,1135
50,13.5,54.5,1135
50,13.5,55,1149
50,13.5,55.5,1149
50,13.5,56,1163
50,13.5,56.5,1163
50,13.5,57,1173
50,13.5,57.5,1173
50,13.5,58,1187
50,13.5,58.5,1187
50,13.5,59,1202
50,13.5,59.5,1202
50,13.5,60,1218
50,13.5,60.5,1218
50,14,0,791
50,14,0.5,819
50,14,1,819
50,14,1.5,819
50,14,2,820
50,14,2.5,820
50,14,3,820
50,14,3.5,820
50,14,4,821
50,14,4.5,821
50,14,5,822
50,14,5.5,822
50,14,6,824
50,14,6.5,824
50,14,7,825
50,14,7.5,825
50,14,8,827
50,14,8.5,827
50,14,9,829
50,14,9.5,829
50,14,10,831
50,14,10.5,831
50,14,11,834
50,14,11.5,834
50,14,12,836
50,14,12.5,836
50,14,13,839
50,14,13.5,839
50,14,14,843
50,14,14.5,843
50,14,15,846
50,14,15.5,846
50,14,16,849
50,14,16.5,849
50,14,17,853
50,14,17.5,853
50,14,18,858
50,14,18.5,858
50,14,19,862
50,14,19.5,862
50,14,20,867
50,14,20.5,867
50,14,21,871
50,14,21.5,871
50,14,22,876
50,14,22.5,876
50,14,23,882
50,14,23.5,882
50,14,24,888
50,14,24.5,888
50,14,25,892
50,14,25.5,892
50,14,26,899
50,14,26.5,899
50,14,27,905
50,14,27.5,905
50,14,28,912
50,14,28.5,912
50,14,29,920
50,14,29.5,920
50,14,30,925
50,14,30.5,925
50,14,31,932
50,14,31.5,932
50,14,32,941
50,14,32.5,941
50,14,33,949
50,14,33.5,949
50,14,34,955
50,14,34.5,955
50,14,35,963
50,14,35.5,963
50,14,36,972
50,14,36.5,972
50,14,37,982
50,14,37.5,982
50,14,38,991
50,14,38.5,991
50,14,39,998
50,14,39.5,998
50,14,40,1008
50,14,40.5,1008
50,14,41,1018
50,14,41.5,1018
50,14,42,1029
50,14,42.5,1029
50,14,43,1036
50,14,43.5,1036
50,14,44,1047
50,14,44.5,1047
50,14,45,1058
50,14,45.5,1058
50,14,46,1070
50,14,46.5,1070
50,14,47,1082
50,14,47.5,1082
50,14,48,1090
50,14,48.5,1090
50,14,49,1102
50,14,49.5,1102
50,14,50,1115
50,14,50.5,1115
50,14,51,1128
50,14,51.5,1128
50,14,52,1137
50,14,52.5,1137
50,14,53,1150
50,14,53.5,1150
50,14,54,1164
50,14,54.5,1164
50,14,55,1177
50,14,55.5,1177
50,14,56,1192
50,14,56.5,1192
50,14,57,1201
50,14,57.5,1201
50,14,58,1216
50,14,58.5,1216
50,14,59,1231
50,14,59.5,1231
50,14,60,1246
50,14,60.5,1246
50,14.5,0,848
50,14.5,0.5,848
50,14.5,1,848
50,14.5,1.5,848
50,14.5,2,848
50,14.5,2.5,848
50,14.5,3,849
50,14.5,3.5,849
50,14.5,4,850
50,14.5,4.5,850
50,14.5,5,851
50,14.5,5.5,851
50,14.5,6,852
50,14.5,6.5,852
50,14.5,7,853
50,14.5,7.5,853
50,14.5,8,855
50,14.5,8.5,855
50,14.5,9,857
50,14.5,9.5,857
50,14.5,10,860
50,14.5,10.5,860
50,14.5,11,862
50,14.5,11.5,862
50,14.5,12,864
50,14.5,12.5,864
50,14.5,13,868
50,14.5,13.5,868
50,14.5,14,871
50,14.5,14.5,871
50,14.5,15,875
50,14.5,15.5,875
50,14.5,16,877
50,14.5,16.5,877
50,14.5,17,882
50,14.5,17.5,882
50,14.5,18,886
50,14.5,18.5,886
50,14.5,19,891
50,14.5,19.5,891
50,14.5,20,891
50,14.5,20.5,896
50,14.5,21,899
50,14.5,21.5,899
50,14.5,22,905
50,14.5,22.5,905
50,14.5,23,910
50,14.5,23.5,910
50,14.5,24,916
50,14.5,24.5,916
50,14.5,25,916
50,14.5,25.5,921
50,14.5,26,927
50,14.5,26.5,927
50,14.5,27,934
50,14.5,27.5,934
50,14.5,28,941
50,14.5,28.5,941
50,14.5,29,948
50,14.5,29.5,948
50,14.5,30,953
50,14.5,30.5,953
50,14.5,31,961
50,14.5,31.5,961
50,14.5,32,969
50,14.5,32.5,969
50,14.5,33,977
50,14.5,33.5,977
50,14.5,34,983
50,14.5,34.5,983
50,14.5,35,992
50,14.5,35.5,992
50,14.5,36,1001
50,14.5,36.5,1001
50,14.5,37,1010
50,14.5,37.5,1010
50,14.5,38,1020
50,14.5,38.5,1020
50,14.5,39,1026
50,14.5,39.5,1026
50,14.5,40,1036
50,14.5,40.5,1036
50,14.5,41,1047
50,14.5,41.5,1047
50,14.5,42,1057
50,14.5,42.5,1057
50,14.5,43,1064
50,14.5,43.5,1064
50,14.5,44,1075
50,14.5,44.5,1075
50,14.5,45,1087
50,14.5,45.5,1087
50,14.5,46,1098
50,14.5,46.5,1098
50,14.5,47,1110
50,14.5,47.5,1110
50,14.5,48,1118
50,14.5,48.5,1118
50,14.5,49,1131
50,14.5,49.5,1131
50,14.5,50,1143
50,14.5,50.5,1143
50,14.5,51,1156
50,14.5,51.5,1156
50,14.5,52,1165
50,14.5,52.5,1165
50,14.5,53,1178
50,14.5,53.5,1178
50,14.5,54,1192
50,14.5,54.5,1192
50,14.5,55,1206
50,14.5,55.5,1206
50,14.5,56,1220
50,14.5,56.5,1220
50,14.5,57,1230
50,14.5,57.5,1230
50,14.5,58,1244
50,14.5,58.5,1244
50,14.5,59,1259
50,14.5,59.5,1259
50,14.5,60,1274
50,14.5,60.5,1274
50,15,0,876
50,15,0.5,876
50,15,1,876
50,15,1.5,876
50,15,2,877
50,15,2.5,877
50,15,3,877
50,15,3.5,877
50,15,4,878
50,15,4.5,878
50,15,5,879
50,15,5.5,879
50,15,6,881
50,15,6.5,881
50,15,7,882
50,15,7.5,882
50,15,8,884
50,15,8.5,884
50,15,9,886
50,15,9.5,886
50,15,10,888
50,15,10.5,888
50,15,11,891
50,15,11.5,891
50,15,12,893
50,15,12.5,893
50,15,13,896
50,15,13.5,896
50,15,14,899
50,15,14.5,899
50,15,15,903
50,15,15.5,903
50,15,16,906
50,15,16.5,906
50,15,17,910
50,15,17.5,910
50,15,18,914
50,15,18.5,914
50,15,19,919
50,15,19.5,919
50,15,20,924
50,15,20.5,924
50,15,21,928
50,15,21.5,928
50,15,22,933
50,15,22.5,933
50,15,23,939
50,15,23.5,939
50,15,24,945
50,15,24.5,945
50,15,25,949
50,15,25.5,949
50,15,26,956
50,15,26.5,956
50,15,27,962
50,15,27.5,962
50,15,28,969
50,15,28.5,969
50,15,29,977
50,15,29.5,977
50,15,30,982
50,15,30.5,982
50,15,31,989
50,15,31.5,989
50,15,32,997
50,15,32.5,997
50,15,33,1006
50,15,33.5,1006
50,15,34,1011
50,15,34.5,1011
50,15,35,1020
50,15,35.5,1020
50,15,36,1029
50,15,36.5,1029
50,15,37,1039
50,15,37.5,1039
50,15,38,1048
50,15,38.5,1048
50,15,39,1055
50,15,39.5,1055
50,15,40,1065
50,15,40.5,1065
50,15,41,1075
50,15,41.5,1075
50,15,42,1086
50,15,42.5,1086
50,15,43,1093
50,15,43.5,1093
50,15,44,1104
50,15,44.5,1104
50,15,45,1115
50,15,45.5,1115
50,15,46,1127
50,15,46.5,1127
50,15,47,1139
50,15,47.5,1139
50,15,48,1147
50,15,48.5,1147
50,15,49,1159
50,15,49.5,1159
50,15,50,1172
50,15,50.5,1172
50,15,51,1185
50,15,51.5,1185
50,15,52,1193
50,15,52.5,1193
50,15,53,1207
50,15,53.5,1207
50,15,54,1220
50,15,54.5,1220
50,15,55,1234
50,15,55.5,1234
50,15,56,1249
50,15,56.5,1249
50,15,57,1258
50,15,57.5,1258
50,15,58,1273
50,15,58.5,1273
50,15,59,1288
50,15,59.5,1288
50,15,60,1303
50,15,60.5,1303
50,15.5,0,905
50,15.5,0.5,905
50,15.5,1,905
50,15.5,1.5,905
50,15.5,2,905
50,15.5,2.5,905
50,15.5,3,906
50,15.5,3.5,906
50,15.5,4,907
50,15.5,4.5,907
50,15.5,5,908
50,15.5,5.5,908
50,15.5,6,909
50,15.5,6.5,909
50,15.5,7,910
50,15.5,7.5,910
50,15.5,8,912
50,15.5,8.5,912
50,15.5,9,914
50,15.5,9.5,914
50,15.5,10,917
50,15.5,10.5,917
50,15.5,11,919
50,15.5,11.5,919
50,15.5,12,921
50,15.5,12.5,921
50,15.5,13,924
50,15.5,13.5,924
50,15.5,14,928
50,15.5,14.5,928
50,15.5,15,932
50,15.5,15.5,932
50,15.5,16,934
50,15.5,16.5,934
50,15.5,17,938
50,15.5,17.5,938
50,15.5,18,943
50,15.5,18.5,943
50,15.5,19,948
50,15.5,19.5,948
50,15.5,20,953
50,15.5,20.5,953
50,15.5,21,956
50,15.5,21.5,956
50,15.5,22,962
50,15.5,22.5,962
50,15.5,23,967
50,15.5,23.5,967
50,15.5,24,973
50,15.5,24.5,973
50,15.5,25,978
50,15.5,25.5,978
50,15.5,26,984
50,15.5,26.5,984
50,15.5,27,991
50,15.5,27.5,991
50,15.5,28,998
50,15.5,28.5,998
50,15.5,29,1005
50,15.5,29.5,1005
50,15.5,30,1010
50,15.5,30.5,1010
50,15.5,31,1018
50,15.5,31.5,1018
50,15.5,32,1026
50,15.5,32.5,1026
50,15.5,33,1034
50,15.5,33.5,1034
50,15.5,34,1040
50,15.5,34.5,1040
50,15.5,35,1049
50,15.5,35.5,1049
50,15.5,36,1058
50,15.5,36.5,1058
50,15.5,37,1067
50,15.5,37.5,1067
50,15.5,38,1077
50,15.5,38.5,1077
50,15.5,39,1083
50,15.5,39.5,1083
50,15.5,40,1093
50,15.5,40.5,1093
50,15.5,41,1103
50,15.5,41.5,1103
50,15.5,42,1114
50,15.5,42.5,1114
50,15.5,43,1121
50,15.5,43.5,1121
50,15.5,44,1132
50,15.5,44.5,1132
50,15.5,45,1144
50,15.5,45.5,1144
50,15.5,46,1155
50,15.5,46.5,1155
50,15.5,47,1167
50,15.5,47.5,1167
50,15.5,48,1175
50,15.5,48.5,1175
50,15.5,49,1188
50,15.5,49.5,1188
50,15.5,50,1200
50,15.5,50.5,1200
50,15.5,51,1213
50,15.5,51.5,1213
50,15.5,52,1222
50,15.5,52.5,1222
50,15.5,53,1235
50,15.5,53.5,1235
50,15.5,54,1249
50,15.5,54.5,1249
50,15.5,55,1263
50,15.5,55.5,1263
50,15.5,56,1277
50,15.5,56.5,1277
50,15.5,57,1287
50,15.5,57.5,1287
50,15.5,58,1301
50,15.5,58.5,1301
50,15.5,59,1316
50,15.5,59.5,1316
50,15.5,60,1331
50,15.5,60.5,1331
50,16,0,933
50,16,0.5,933
50,16,1,933
50,16,1.5,933
50,16,2,934
50,16,2.5,934
50,16,3,934
50,16,3.5,934
50,16,4,935
50,16,4.5,935
50,16,5,936
50,16,5.5,936
50,16,6,938
50,16,6.5,938
50,16,7,939
50,16,7.5,939
50,16,8,941
50,16,8.5,941
50,16,9,943
50,16,9.5,943
50,16,10,945
50,16,10.5,945
50,16,11,948
50,16,11.5,948
50,16,12,950
50,16,12.5,950
50,16,13,953
50,16,13.5,953
50,16,14,956
50,16,14.5,956
50,16,15,960
50,16,15.5,960
50,16,16,963
50,16,16.5,963
50,16,17,967
50,16,17.5,967
50,16,18,971
50,16,18.5,971
50,16,19,976
50,16,19.5,976
50,16,20,981
50,16,20.5,981
50,16,21,985
50,16,21.5,985
50,16,22,990
50,16,22.5,990
50,16,23,996
50,16,23.5,996
50,16,24,1002
50,16,24.5,1002
50,16,25,1006
50,16,25.5,1006
50,16,26,1012
50,16,26.5,1012
50,16,27,1019
50,16,27.5,1019
50,16,28,1026
50,16,28.5,1026
50,16,29,1033
50,16,29.5,1033
50,16,30,1039
50,16,30.5,1039
50,16,31,1046
50,16,31.5,1046
50,16,32,1054
50,16,32.5,1054
50,16,33,1063
50,16,33.5,1063
50,16,34,1068
50,16,34.5,1068
50,16,35,1077
50,16,35.5,1077
50,16,36,1086
50,16,36.5,1086
50,16,37,1095
50,16,37.5,1095
50,16,38,1105
50,16,38.5,1105
50,16,39,1112
50,16,39.5,1112
50,16,40,1122
50,16,40.5,1122
50,16,41,1132
50,16,41.5,1132
50,16,42,1143
50,16,42.5,1143
50,16,43,1150
50,16,43.5,1150
50,16,44,1161
50,16,44.5,1161
50,16,45,1172
50,16,45.5,1172
50,16,46,1184
50,16,46.5,1184
50,16,47,1196
50,16,47.5,1196
50,16,48,1204
50,16,48.5,1204
50,16,49,1216
50,16,49.5,1216
50,16,50,1229
50,16,50.5,1229
50,16,51,1242
50,16,51.5,1242
50,16,52,1250
50,16,52.5,1250
50,16,53,1264
50,16,53.5,1264
50,16,54,1277
50,16,54.5,1277
50,16,55,1291
50,16,55.5,1291
50,16,56,1305
50,16,56.5,1305
50,16,57,1315
50,16,57.5,1315
50,16,58,1330
50,16,58.5,1330
50,16,59,1345
50,16,59.5,1345
50,16,60,1360
50,16,60.5,1360
50,16.5,0,962
50,16.5,0.5,962
50,16.5,1,962
50,16.5,1.5,962
50,16.5,2,962
50,16.5,2.5,962
50,16.5,3,963
50,16.5,3.5,963
50,16.5,4,963
50,16.5,4.5,963
50,16.5,5,965
50,16.5,5.5,965
50,16.5,6,966
50,16.5,6.5,966
50,16.5,7,967
50,16.5,7.5,967
50,16.5,8,969
50,16.5,8.5,969
50,16.5,9,971
50,16.5,9.5,971
50,16.5,10,974
50,16.5,10.5,974
50,16.5,11,976
50,16.5,11.5,976
50,16.5,12,978
50,16.5,12.5,978
50,16.5,13,981
50,16.5,13.5,981
50,16.5,14,985
50,16.5,14.5,985
50,16.5,15,989
50,16.5,15.5,989
50,16.5,16,991
50,16.5,16.5,991
50,16.5,17,995
50,16.5,17.5,995
50,16.5,18,1000
50,16.5,18.5,1000
50,16.5,19,1005
50,16.5,19.5,1005
50,16.5,20,1010
50,16.5,20.5,1010
50,16.5,21,1013
50,16.5,21.5,1013
50,16.5,22,1018
50,16.5,22.5,1018
50,16.5,23,1024
50,16.5,23.5,1024
50,16.5,24,1030
50,16.5,24.5,1030
50,16.5,25,1034
50,16.5,25.5,1034
50,16.5,26,1041
50,16.5,26.5,1041
50,16.5,27,1048
50,16.5,27.5,1048
50,16.5,28,1055
50,16.5,28.5,1055
50,16.5,29,1062
50,16.5,29.5,1062
50,16.5,30,1067
50,16.5,30.5,1067
50,16.5,31,1075
50,16.5,31.5,1075
50,16.5,32,1083
50,16.5,32.5,1083
50,16.5,33,1091
50,16.5,33.5,1091
50,16.5,34,1097
50,16.5,34.5,1097
50,16.5,35,1106
50,16.5,35.5,1106
50,16.5,36,1115
50,16.5,36.5,1115
50,16.5,37,1124
50,16.5,37.5,1124
50,16.5,38,1133
50,16.5,38.5,1133
50,16.5,39,1140
50,16.5,39.5,1140
50,16.5,40,1150
50,16.5,40.5,1150
50,16.5,41,1160
50,16.5,41.5,1160
50,16.5,42,1171
50,16.5,42.5,1171
50,16.5,43,1178
50,16.5,43.5,1178
50,16.5,44,1189
50,16.5,44.5,1189
50,16.5,45,1201
50,16.5,45.5,1201
50,16.5,46,1212
50,16.5,46.5,1212
50,16.5,47,1224
50,16.5,47.5,1224
50,16.5,48,1232
50,16.5,48.5,1232
50,16.5,49,1245
50,16.5,49.5,1245
50,16.5,50,1257
50,16.5,50.5,1257
50,16.5,51,1270
50,16.5,51.5,1270
50,16.5,52,1279
50,16.5,52.5,1279
50,16.5,53,1292
50,16.5,53.5,1292
50,16.5,54,1306
50,16.5,54.5,1306
50,16.5,55,1320
50,16.5,55.5,1320
50,16.5,56,1334
50,16.5,56.5,1334
50,16.5,57,1344
50,16.5,57.5,1344
50,16.5,58,1358
50,16.5,58.5,1358
50,16.5,59,1373
50,16.5,59.5,1373
50,16.5,60,1388
50,16.5,60.5,1388
50,17,0,990
50,17,0.5,990
50,17,1,990
50,17,1.5,990
50,17,2,991
50,17,2.5,991
50,17,3,991
50,17,3.5,991
50,17,4,992
50,17,4.5,992
50,17,5,993
50,17,5.5,993
50,17,6,994
50,17,6.5,994
50,17,7,996
50,17,7.5,996
50,17,8,997
50,17,8.5,997
50,17,9,1000
50,17,9.5,1000
50,17,10,1002
50,17,10.5,1002
50,17,11,1005
50,17,11.5,1005
50,17,12,1007
50,17,12.5,1007
50,17,13,1010
50,17,13.5,1010
50,17,14,1013
50,17,14.5,1013
50,17,15,1017
50,17,15.5,1017
50,17,16,1020
50,17,16.5,1020
50,17,17,1024
50,17,17.5,1024
50,17,18,1028
50,17,18.5,1028
50,17,19,1033
50,17,19.5,1033
50,17,20,1038
50,17,20.5,1038
50,17,21,1041
50,17,21.5,1041
50,17,22,1047
50,17,22.5,1047
50,17,23,1053
50,17,23.5,1053
50,17,24,1059
50,17,24.5,1059
50,17,25,1063
50,17,25.5,1063
50,17,26,1069
50,17,26.5,1069
50,17,27,1076
50,17,27.5,1076
50,17,28,1083
50,17,28.5,1083
50,17,29,1090
50,17,29.5,1090
50,17,30,1095
50,17,30.5,1095
50,17,31,1103
50,17,31.5,1103
50,17,32,1111
50,17,32.5,1111
50,17,33,1120
50,17,33.5,1120
50,17,34,1125
50,17,34.5,1125
50,17,35,1134
50,17,35.5,1134
50,17,36,1143
50,17,36.5,1143
50,17,37,1152
50,17,37.5,1152
50,17,38,1162
50,17,38.5,1162
50,17,39,1168
50,17,39.5,1168
50,17,40,1179
50,17,40.5,1179
50,17,41,1189
50,17,41.5,1189
50,17,42,1199
50,17,42.5,1199
50,17,43,1207
50,17,43.5,1207
50,17,44,1218
50,17,44.5,1218
50,17,45,1229
50,17,45.5,1229
50,17,46,1241
50,17,46.5,1241
50,17,47,1253
50,17,47.5,1253
50,17,48,1261
50,17,48.5,1261
50,17,49,1273
50,17,49.5,1273
50,17,50,1286
50,17,50.5,1286
50,17,51,1299
50,17,51.5,1299
50,17,52,1307
50,17,52.5,1307
50,17,53,1321
50,17,53.5,1321
50,17,54,1334
50,17,54.5,1334
50,17,55,1348
50,17,55.5,1348
50,17,56,1362
50,17,56.5,1362
50,17,57,1372
50,17,57.5,1372
50,17,58,1387
50,17,58.5,1387
50,17,59,1402
50,17,59.5,1402
50,17,60,1417
50,17,60.5,1417
50,17.5,0,1018
50,17.5,0.5,1018
50,17.5,1,1019
50,17.5,1.5,1019
50,17.5,2,1019
50,17.5,2.5,1019
50,17.5,3,1019
50,17.5,3.5,1019
50,17.5,4,1020
50,17.5,4.5,1020
50,17.5,5,1021
50,17.5,5.5,1021
50,17.5,6,1023
50,17.5,6.5,1023
50,17.5,7,1024
50,17.5,7.5,1024
50,17.5,8,1026
50,17.5,8.5,1026
50,17.5,9,1028
50,17.5,9.5,1028
50,17.5,10,1030
50,17.5,10.5,1030
50,17.5,11,1033
50,17.5,11.5,1033
50,17.5,12,1035
50,17.5,12.5,1035
50,17.5,13,1038
50,17.5,13.5,1038
50,17.5,14,1042
50,17.5,14.5,1042
50,17.5,15,1045
50,17.5,15.5,1045
50,17.5,16,1048
50,17.5,16.5,1048
50,17.5,17,1052
50,17.5,17.5,1052
50,17.5,18,1057
50,17.5,18.5,1057
50,17.5,19,1061
50,17.5,19.5,1061
50,17.5,20,1066
50,17.5,20.5,1066
50,17.5,21,1070
50,17.5,21.5,1070
50,17.5,22,1075
50,17.5,22.5,1075
50,17.5,23,1081
50,17.5,23.5,1081
50,17.5,24,1087
50,17.5,24.5,1087
50,17.5,25,1091
50,17.5,25.5,1091
50,17.5,26,1098
50,17.5,26.5,1098
50,17.5,27,1105
50,17.5,27.5,1105
50,17.5,28,1112
50,17.5,28.5,1112
50,17.5,29,1119
50,17.5,29.5,1119
50,17.5,30,1124
50,17.5,30.5,1124
50,17.5,31,1132
50,17.5,31.5,1132
50,17.5,32,1140
50,17.5,32.5,1140
50,17.5,33,1148
50,17.5,33.5,1148
50,17.5,34,1154
50,17.5,34.5,1154
50,17.5,35,1162
50,17.5,35.5,1162
50,17.5,36,1171
50,17.5,36.5,1171
50,17.5,37,1181
50,17.5,37.5,1181
50,17.5,38,1190
50,17.5,38.5,1190
50,17.5,39,1197
50,17.5,39.5,1197
50,17.5,40,1207
50,17.5,40.5,1207
50,17.5,41,1217
50,17.5,41.5,1217
50,17.5,42,1228
50,17.5,42.5,1228
50,17.5,43,1235
50,17.5,43.5,1235
50,17.5,44,1246
50,17.5,44.5,1246
50,17.5,45,1258
50,17.5,45.5,1258
50,17.5,46,1269
50,17.5,46.5,1269
50,17.5,47,1281
50,17.5,47.5,1281
50,17.5,48,1289
50,17.5,48.5,1289
50,17.5,49,1301
50,17.5,49.5,1301
50,17.5,50,1314
50,17.5,50.5,1314
50,17.5,51,1327
50,17.5,51.5,1327
50,17.5,52,1336
50,17.5,52.5,1336
50,17.5,53,1349
50,17.5,53.5,1349
50,17.5,54,1363
50,17.5,54.5,1363
50,17.5,55,1377
50,17.5,55.5,1377
50,17.5,56,1391
50,17.5,56.5,1391
50,17.5,57,1400
50,17.5,57.5,1400
50,17.5,58,1415
50,17.5,58.5,1415
50,17.5,59,1430
50,17.5,59.5,1430
50,17.5,60,1445
50,17.5,60.5,1445
50,18,0,1047
50,18,0.5,1047
50,18,1,1047
50,18,1.5,1047
50,18,2,1047
50,18,2.5,1047
50,18,3,1048
50,18,3.5,1048
50,18,4,1049
50,18,4.5,1049
50,18,5,1050
50,18,5.5,1050
50,18,6,1051
50,18,6.5,1051
50,18,7,1052
50,18,7.5,1052
50,18,8,1054
50,18,8.5,1054
50,18,9,1056
50,18,9.5,1056
50,18,10,1059
50,18,10.5,1059
50,18,11,1062
50,18,11.5,1062
50,18,12,1064
50,18,12.5,1064
50,18,13,1067
50,18,13.5,1067
50,18,14,1070
50,18,14.5,1070
50,18,15,1074
50,18,15.5,1074
50,18,16,1077
50,18,16.5,1077
50,18,17,1081
50,18,17.5,1081
50,18,18,1085
50,18,18.5,1085
50,18,19,1090
50,18,19.5,1090
50,18,20,1095
50,18,20.5,1095
50,18,21,1098
50,18,21.5,1098
50,18,22,1104
50,18,22.5,1104
50,18,23,1110
50,18,23.5,1110
50,18,24,1116
50,18,24.5,1116
50,18,25,1120
50,18,25.5,1120
50,18,26,1126
50,18,26.5,1126
50,18,27,1133
50,18,27.5,1133
50,18,28,1140
50,18,28.5,1140
50,18,29,1147
50,18,29.5,1147
50,18,30,1152
50,18,30.5,1152
50,18,31,1160
50,18,31.5,1160
50,18,32,1168
50,18,32.5,1168
50,18,33,1176
50,18,33.5,1176
50,18,34,1182
50,18,34.5,1182
50,18,35,1191
50,18,35.5,1191
50,18,36,1200
50,18,36.5,1200
50,18,37,1209
50,18,37.5,1209
50,18,38,1219
50,18,38.5,1219
50,18,39,1225
50,18,39.5,1225
50,18,40,1235
50,18,40.5,1235
50,18,41,1246
50,18,41.5,1246
50,18,42,1256
50,18,42.5,1256
50,18,43,1264
50,18,43.5,1264
50,18,44,1275
50,18,44.5,1275
50,18,45,1286
50,18,45.5,1286
50,18,46,1298
50,18,46.5,1298
50,18,47,1309
50,18,47.5,1309
50,18,48,1318
50,18,48.5,1318
50,18,49,1330
50,18,49.5,1330
50,18,50,1343
50,18,50.5,1343
50,18,51,1355
50,18,51.5,1355
50,18,52,1364
50,18,52.5,1364
50,18,53,1378
50,18,53.5,1378
50,18,54,1391
50,18,54.5,1391
50,18,55,1405
50,18,55.5,1405
50,18,56,1419
50,18,56.5,1419
50,18,57,1429
50,18,57.5,1429
50,18,58,1444
50,18,58.5,1444
50,18,59,1458
50,18,59.5,1458
50,18,60,1474
50,18,60.5,1474
50,18.5,0,1075
50,18.5,0.5,1075
50,18.5,1,1075
50,18.5,1.5,1075
50,18.5,2,1076
50,18.5,2.5,1076
50,18.5,3,1076
50,18.5,3.5,1076
50,18.5,4,1077
50,18.5,4.5,1077
50,18.5,5,1078
50,18.5,5.5,1078
50,18.5,6,1080
50,18.5,6.5,1080
50,18.5,7,1081
50,18.5,7.5,1081
50,18.5,8,1083
50,18.5,8.5,1083
50,18.5,9,1085
50,18.5,9.5,1085
50,18.5,10,1087
50,18.5,10.5,1087
50,18.5,11,1090
50,18.5,11.5,1090
50,18.5,12,1092
50,18.5,12.5,1092
50,18.5,13,1095
50,18.5,13.5,1095
50,18.5,14,1099
50,18.5,14.5,1099
50,18.5,15,1102
50,18.5,15.5,1102
50,18.5,16,1105
50,18.5,16.5,1105
50,18.5,17,1109
50,18.5,17.5,1109
50,18.5,18,1114
50,18.5,18.5,1114
50,18.5,19,1118
50,18.5,19.5,1118
50,18.5,20,1123
50,18.5,20.5,1123
50,18.5,21,1127
50,18.5,21.5,1127
50,18.5,22,1132
50,18.5,22.5,1132
50,18.5,23,1138
50,18.5,23.5,1138
50,18.5,24,1144
50,18.5,24.5,1144
50,18.5,25,1148
50,18.5,25.5,1148
50,18.5,26,1155
50,18.5,26.5,1155
50,18.5,27,1161
50,18.5,27.5,1161
50,18.5,28,1168
50,18.5,28.5,1168
50,18.5,29,1176
50,18.5,29.5,1176
50,18.5,30,1181
50,18.5,30.5,1181
50,18.5,31,1189
50,18.5,31.5,1189
50,18.5,32,1197
50,18.5,32.5,1197
50,18.5,33,1205
50,18.5,33.5,1205
50,18.5,34,1211
50,18.5,34.5,1211
50,18.5,35,1219
50,18.5,35.5,1219
50,18.5,36,1228
50,18.5,36.5,1228
50,18.5,37,1238
50,18.5,37.5,1238
50,18.5,38,1247
50,18.5,38.5,1247
50,18.5,39,1254
50,18.5,39.5,1254
50,18.5,40,1264
50,18.5,40.5,1264
50,18.5,41,1274
50,18.5,41.5,1274
50,18.5,42,1285
50,18.5,42.5,1285
50,18.5,43,1292
50,18.5,43.5,1292
50,18.5,44,1303
50,18.5,44.5,1303
50,18.5,45,1314
50,18.5,45.5,1314
50,18.5,46,1326
50,18.5,46.5,1326
50,18.5,47,1338
50,18.5,47.5,1338
50,18.5,48,1346
50,18.5,48.5,1346
50,18.5,49,1358
50,18.5,49.5,1358
50,18.5,50,1371
50,18.5,50.5,1371
50,18.5,51,1384
50,18.5,51.5,1384
50,18.5,52,1393
50,18.5,52.5,1393
50,18.5,53,1406
50,18.5,53.5,1406
50,18.5,54,1420
50,18.5,54.5,1420
50,18.5,55,1434
50,18.5,55.5,1434
50,18.5,56,1448
50,18.5,56.5,1448
50,18.5,57,1457
50,18.5,57.5,1457
50,18.5,58,1472
50,18.5,58.5,1472
50,18.5,59,1487
50,18.5,59.5,1487
50,18.5,60,1502
50,18.5,60.5,1502
50,19,0,1104
50,19,0.5,1104
50,19,1,1104
50,19,1.5,1104
50,19,2,1104
50,19,2.5,1104
50,19,3,1105
50,19,3.5,1105
50,19,4,1106
50,19,4.5,1106
50,19,5,1107
50,19,5.5,1107
50,19,6,1108
50,19,6.5,1108
50,19,7,1109
50,19,7.5,1109
50,19,8,1111
50,19,8.5,1111
50,19,9,1113
50,19,9.5,1113
50,19,10,1116
50,19,10.5,1116
50,19,11,1119
50,19,11.5,1119
50,19,12,1120
50,19,12.5,1120
50,19,13,1124
50,19,13.5,1124
50,19,14,1127
50,19,14.5,1127
50,19,15,1131
50,19,15.5,1131
50,19,16,1133
50,19,16.5,1133
50,19,17,1138
50,19,17.5,1138
50,19,18,1142
50,19,18.5,1142
50,19,19,1147
50,19,19.5,1147
50,19,20,1152
50,19,20.5,1152
50,19,21,1155
50,19,21.5,1155
50,19,22,1161
50,19,22.5,1161
50,19,23,1166
50,19,23.5,1166
50,19,24,1172
50,19,24.5,1172
50,19,25,1177
50,19,25.5,1177
50,19,26,1183
50,19,26.5,1183
50,19,27,1190
50,19,27.5,1190
50,19,28,1197
50,19,28.5,1197
50,19,29,1204
50,19,29.5,1204
50,19,30,1209
50,19,30.5,1209
50,19,31,1217
50,19,31.5,1217
50,19,32,1225
50,19,32.5,1225
50,19,33,1233
50,19,33.5,1233
50,19,34,1239
50,19,34.5,1239
50,19,35,1248
50,19,35.5,1248
50,19,36,1257
50,19,36.5,1257
50,19,37,1266
50,19,37.5,1266
50,19,38,1276
50,19,38.5,1276
50,19,39,1282
50,19,39.5,1282
50,19,40,1292
50,19,40.5,1292
50,19,41,1303
50,19,41.5,1303
50,19,42,1313
50,19,42.5,1313
50,19,43,1320
50,19,43.5,1320
50,19,44,1332
50,19,44.5,1332
50,19,45,1343
50,19,45.5,1343
50,19,46,1354
50,19,46.5,1354
50,19,47,1366
50,19,47.5,1366
50,19,48,1374
50,19,48.5,1374
50,19,49,1387
50,19,49.5,1387
50,19,50,1399
50,19,50.5,1399
50,19,51,1412
50,19,51.5,1412
50,19,52,1421
50,19,52.5,1421
50,19,53,1434
50,19,53.5,1434
50,19,54,1448
50,19,54.5,1448
50,19,55,1462
50,19,55.5,1462
50,19,56,1476
50,19,56.5,1476
50,19,57,1486
50,19,57.5,1486
50,19,58,1500
50,19,58.5,1500
50,19,59,1515
50,19,59.5,1515
50,19,60,1531
50,19,60.5,1531
50,19.5,0,1132
50,19.5,0.5,1132
50,19.5,1,1132
50,19.5,1.5,1132
50,19.5,2,1133
50,19.5,2.5,1133
50,19.5,3,1133
50,19.5,3.5,1133
50,19.5,4,1134
50,19.5,4.5,1134
50,19.5,5,1135
50,19.5,5.5,1135
50,19.5,6,1137
50,19.5,6.5,1137
50,19.5,7,1138
50,19.5,7.5,1138
50,19.5,8,1140
50,19.5,8.5,1140
50,19.5,9,1142
50,19.5,9.5,1142
50,19.5,10,1144
50,19.5,10.5,1144
50,19.5,11,1147
50,19.5,11.5,1147
50,19.5,12,1149
50,19.5,12.5,1149
50,19.5,13,1152
50,19.5,13.5,1152
50,19.5,14,1156
50,19.5,14.5,1156
50,19.5,15,1159
50,19.5,15.5,1159
50,19.5,16,1162
50,19.5,16.5,1162
50,19.5,17,1166
50,19.5,17.5,1166
50,19.5,18,1171
50,19.5,18.5,1171
50,19.5,19,1175
50,19.5,19.5,1175
50,19.5,20,1180
50,19.5,20.5,1180
50,19.5,21,1184
50,19.5,21.5,1184
50,19.5,22,1189
50,19.5,22.5,1189
50,19.5,23,1195
50,19.5,23.5,1195
50,19.5,24,1201
50,19.5,24.5,1201
50,19.5,25,1205
50,19.5,25.5,1205
50,19.5,26,1212
50,19.5,26.5,1212
50,19.5,27,1218
50,19.5,27.5,1218
50,19.5,28,1225
50,19.5,28.5,1225
50,19.5,29,1233
50,19.5,29.5,1233
50,19.5,30,1238
50,19.5,30.5,1238
50,19.5,31,1245
50,19.5,31.5,1245
50,19.5,32,1253
50,19.5,32.5,1253
50,19.5,33,1262
50,19.5,33.5,1262
50,19.5,34,1267
50,19.5,34.5,1267
50,19.5,35,1276
50,19.5,35.5,1276
50,19.5,36,1285
50,19.5,36.5,1285
50,19.5,37,1295
50,19.5,37.5,1295
50,19.5,38,1304
50,19.5,38.5,1304
50,19.5,39,1311
50,19.5,39.5,1311
50,19.5,40,1321
50,19.5,40.5,1321
50,19.5,41,1331
50,19.5,41.5,1331
50,19.5,42,1342
50,19.5,42.5,1342
50,19.5,43,1349
50,19.5,43.5,1349
50,19.5,44,1360
50,19.5,44.5,1360
50,19.5,45,1371
50,19.5,45.5,1371
50,19.5,46,1383
50,19.5,46.5,1383
50,19.5,47,1395
50,19.5,47.5,1395
50,19.5,48,1403
50,19.5,48.5,1403
50,19.5,49,1415
50,19.5,49.5,1415
50,19.5,50,1428
50,19.5,50.5,1428
50,19.5,51,1441
50,19.5,51.5,1441
50,19.5,52,1450
50,19.5,52.5,1450
50,19.5,53,1463
50,19.5,53.5,1463
50,19.5,54,1477
50,19.5,54.5,1477
50,19.5,55,1490
50,19.5,55.5,1490
50,19.5,56,1505
50,19.5,56.5,1505
50,19.5,57,1514
50,19.5,57.5,1514
50,19.5,58,1529
50,19.5,58.5,1529
50,19.5,59,1544
50,19.5,59.5,1544
50,19.5,60,1559
50,19.5,60.5,1559
50,20,0,1132
50,20,0.5,1161
50,20,1,1161
50,20,1.5,1161
50,20,2,1161
50,20,2.5,1161
50,20,3,1162
50,20,3.5,1162
50,20,4,1163
50,20,4.5,1163
50,20,5,1164
50,20,5.5,1164
50,20,6,1165
50,20,6.5,1165
50,20,7,1166
50,20,7.5,1166
50,20,8,1168
50,20,8.5,1168
50,20,9,1170
50,20,9.5,1170
50,20,10,1173
50,20,10.5,1173
50,20,11,1175
50,20,11.5,1175
50,20,12,1177
50,20,12.5,1177
50,20,13,1181
50,20,13.5,1181
50,20,14,1184
50,20,14.5,1184
50,20,15,1188
50,20,15.5,1188
50,20,16,1190
50,20,16.5,1190
50,20,17,1195
50,20,17.5,1195
50,20,18,1199
50,20,18.5,1199
50,20,19,1204
50,20,19.5,1204
50,20,20,1209
50,20,20.5,1209
50,20,21,1212
50,20,21.5,1212
50,20,22,1218
50,20,22.5,1218
50,20,23,1223
50,20,23.5,1223
50,20,24,1229
50,20,24.5,1229
50,20,25,1234
50,20,25.5,1234
50,20,26,1240
50,20,26.5,1240
50,20,27,1247
50,20,27.5,1247
50,20,28,1254
50,20,28.5,1254
50,20,29,1261
50,20,29.5,1261
50,20,30,1266
50,20,30.5,1266
50,20,31,1274
50,20,31.5,1274
50,20,32,1282
50,20,32.5,1282
50,20,33,1290
50,20,33.5,1290
50,20,34,1296
50,20,34.5,1296
50,20,35,1305
50,20,35.5,1305
50,20,36,1314
50,20,36.5,1314
50,20,37,1323
50,20,37.5,1323
50,20,38,1333
50,20,38.5,1333
50,20,39,1339
50,20,39.5,1339
50,20,40,1349
50,20,40.5,1349
50,20,41,1360
50,20,41.5,1360
50,20,42,1370
50,20,42.5,1370
50,20,43,1377
50,20,43.5,1377
50,20,44,1388
50,20,44.5,1388
50,20,45,1400
50,20,45.5,1400
50,20,46,1411
50,20,46.5,1411
50,20,47,1423
50,20,47.5,1423
50,20,48,1431
50,20,48.5,1431
50,20,49,1444
50,20,49.5,1444
50,20,50,1456
50,20,50.5,1456
50,20,51,1469
50,20,51.5,1469
50,20,52,1478
50,20,52.5,1478
50,20,53,1491
50,20,53.5,1491
50,20,54,1505
50,20,54.5,1505
50,20,55,1519
50,20,55.5,1519
50,20,56,1533
50,20,56.5,1533
50,20,57,1543
50,20,57.5,1543
50,20,58,1557
50,20,58.5,1557
50,20,59,1572
50,20,59.5,1572
50,20,60,1587
50,20,60.5,1587
50,20.5,0,1161
50,20.5,0.5,1161
50,20.5,1,1161
50,20.5,1.5,1161
50,20.5,2,1161
50,20.5,2.5,1161
50,20.5,3,1162
50,20.5,3.5,1162
50,20.5,4,1163
50,20.5,4.5,1163
50,20.5,5,1164
50,20.5,5.5,1164
50,20.5,6,1165
50,20.5,6.5,1165
50,20.5,7,1166
50,20.5,7.5,1166
50,20.5,8,1168
50,20.5,8.5,1168
50,20.5,9,1170
50,20.5,9.5,1170
50,20.5,10,1173
50,20.5,10.5,1173
50,20.5,11,1175
50,20.5,11.5,1175
50,20.5,12,1177
50,20.5,12.5,1177
50,20.5,13,1181
50,20.5,13.5,1181
50,20.5,14,1184
50,20.5,14.5,1184
50,20.5,15,1188
50,20.5,15.5,1188
50,20.5,16,1190
50,20.5,16.5,1190
50,20.5,17,1195
50,20.5,17.5,1195
50,20.5,18,1199
50,20.5,18.5,1199
50,20.5,19,1204
50,20.5,19.5,1204
50,20.5,20,1209
50,20.5,20.5,1209
50,20.5,21,1212
50,20.5,21.5,1212
50,20.5,22,1218
50,20.5,22.5,1218
50,20.5,23,1223
50,20.5,23.5,1223
50,20.5,24,1229
50,20.5,24.5,1229
50,20.5,25,1234
50,20.5,25.5,1234
50,20.5,26,1240
50,20.5,26.5,1240
50,20.5,27,1247
50,20.5,27.5,1247
50,20.5,28,1254
50,20.5,28.5,1254
50,20.5,29,1261
50,20.5,29.5,1261
50,20.5,30,1266
50,20.5,30.5,1266
50,20.5,31,1274
50,20.5,31.5,1274
50,20.5,32,1282
50,20.5,32.5,1282
50,20.5,33,1290
50,20.5,33.5,1290
50,20.5,34,1296
50,20.5,34.5,1296
50,20.5,35,1305
50,20.5,35.5,1305
50,20.5,36,1314
50,20.5,36.5,1314
50,20.5,37,1323
50,20.5,37.5,1323
50,20.5,38,1333
50,20.5,38.5,1333
50,20.5,39,1339
50,20.5,39.5,1339
50,20.5,40,1349
50,20.5,40.5,1349
50,20.5,41,1360
50,20.5,41.5,1360
50,20.5,42,1370
50,20.5,42.5,1370
50,20.5,43,1377
50,20.5,43.5,1377
50,20.5,44,1388
50,20.5,44.5,1388
50,20.5,45,1400
50,20.5,45.5,1400
50,20.5,46,1411
50,20.5,46.5,1411
50,20.5,47,1423
50,20.5,47.5,1423
50,20.5,48,1431
50,20.5,48.5,1431
50,20.5,49,1444
50,20.5,49.5,1444
50,20.5,50,1456
50,20.5,50.5,1456
50,20.5,51,1469
50,20.5,51.5,1469
50,20.5,52,1478
50,20.5,52.5,1478
50,20.5,53,1491
50,20.5,53.5,1491
50,20.5,54,1505
50,20.5,54.5,1505
50,20.5,55,1519
50,20.5,55.5,1519
50,20.5,56,1533
50,20.5,56.5,1533
50,20.5,57,1543
50,20.5,57.5,1543
50,20.5,58,1557
50,20.5,58.5,1557
50,20.5,59,1572
50,20.5,59.5,1572
50,20.5,60,1587
50,20.5,60.5,1587
55,-5,0,-283
55,-5,0.5,-283
55,-5,1,-283
55,-5,1.5,-283
55,-5,2,-283
55,-5,2.5,-283
55,-5,3,-282
55,-5,3.5,-282
55,-5,4,-281
55,-5,4.5,-281
55,-5,5,-280
55,-5,5.5,-280
55,-5,6,-279
55,-5,6.5,-279
55,-5,7,-278
55,-5,7.5,-278
55,-5,8,-276
55,-5,8.5,-276
55,-5,9,-274
55,-5,9.5,-274
55,-5,10,-271
55,-5,10.5,-271
55,-5,11,-269
55,-5,11.5,-269
55,-5,12,-267
55,-5,12.5,-267
55,-5,13,-263
55,-5,13.5,-263
55,-5,14,-260
55,-5,14.5,-260
55,-5,15,-256
55,-5,15.5,-256
55,-5,16,-254
55,-5,16.5,-254
55,-5,17,-250
55,-5,17.5,-250
55,-5,18,-245
55,-5,18.5,-245
55,-5,19,-240
55,-5,19.5,-240
55,-5,20,-235
55,-5,20.5,-235
55,-5,21,-232
55,-5,21.5,-232
55,-5,22,-226
55,-5,22.5,-226
55,-5,23,-221
55,-5,23.5,-221
55,-5,24,-215
55,-5,24.5,-215
55,-5,25,-210
55,-5,25.5,-210
55,-5,26,-204
55,-5,26.5,-204
55,-5,27,-197
55,-5,27.5,-197
55,-5,28,-190
55,-5,28.5,-190
55,-5,29,-183
55,-5,29.5,-183
55,-5,30,-178
55,-5,30.5,-178
55,-5,31,-170
55,-5,31.5,-170
55,-5,32,-162
55,-5,32.5,-162
55,-5,33,-154
55,-5,33.5,-154
55,-5,34,-148
55,-5,34.5,-148
55,-5,35,-139
55,-5,35.5,-139
55,-5,36,-130
55,-5,36.5,-130
55,-5,37,-121
55,-5,37.5,-121
55,-5,38,-111
55,-5,38.5,-111
55,-5,39,-105
55,-5,39.5,-105
55,-5,40,-95
55,-5,40.5,-95
55,-5,41,-84
55,-5,41.5,-84
55,-5,42,-74
55,-5,42.5,-74
55,-5,43,-67
55,-5,43.5,-67
55,-5,44,-56
55,-5,44.5,-56
55,-5,45,-44
55,-5,45.5,-44
55,-5,46,-33
55,-5,46.5,-33
55,-5,47,-21
55,-5,47.5,-21
55,-5,48,-13
55,-5,48.5,-13
55,-5,49,0
55,-5,49.5,0
55,-5,50,11
55,-5,50.5,11
55,-5,51,24
55,-5,51.5,24
55,-5,52,33
55,-5,52.5,33
55,-5,53,46
55,-5,53.5,46
55,-5,54,60
55,-5,54.5,60
55,-5,55,74
55,-5,55.5,74
55,-5,56,88
55,-5,56.5,88
55,-5,57,98
55,-5,57.5,98
55,-5,58,112
55,-5,58.5,112
55,-5,59,127
55,-5,59.5,127
55,-5,60,142
55,-5,60.5,142
55,-4.5,0,-252
55,-4.5,0.5,-252
55,-4.5,1,-252
55,-4.5,1.5,-252
55,-4.5,2,-252
55,-4.5,2.5,-252
55,-4.5,3,-251
55,-4.5,3.5,-251
55,-4.5,4,-251
55,-4.5,4.5,-251
55,-4.5,5,-249
55,-4.5,5.5,-249
55,-4.5,6,-248
55,-4.5,6.5,-248
55,-4.5,7,-247
55,-4.5,7.5,-247
55,-4.5,8,-245
55,-4.5,8.5,-245
55,-4.5,9,-243
55,-4.5,9.5,-243
55,-4.5,10,-240
55,-4.5,10.5,-240
55,-4.5,11,-238
55,-4.5,11.5,-238
55,-4.5,12,-236
55,-4.5,12.5,-236
55,-4.5,13,-233
55,-4.5,13.5,-233
55,-4.5,14,-229
55,-4.5,14.5,-229
55,-4.5,15,-225
55,-4.5,15.5,-225
55,-4.5,16,-223
55,-4.5,16.5,-223
55,-4.5,17,-219
55,-4.5,17.5,-219
55,-4.5,18,-214
55,-4.5,18.5,-214
55,-4.5,19,-209
55,-4.5,19.5,-209
55,-4.5,20,-204
55,-4.5,20.5,-204
55,-4.5,21,-201
55,-4.5,21.5,-201
55,-4.5,22,-195
55,-4.5,22.5,-195
55,-4.5,23,-190
55,-4.5,23.5,-190
55,-4.5,24,-184
55,-4.5,24.5,-184
55,-4.5,25,-180
55,-4.5,25.5,-180
55,-4.5,26,-173
55,-4.5,26.5,-173
55,-4.5,27,-166
55,-4.5,27.5,-166
55,-4.5,28,-159
55,-4.5,28.5,-159
55,-4.5,29,-152
55,-4.5,29.5,-152
55,-4.5,30,-147
55,-4.5,30.5,-147
55,-4.5,31,-139
55,-4.5,31.5,-139
55,-4.5,32,-131
55,-4.5,32.5,-131
55,-4.5,33,-123
55,-4.5,33.5,-123
55,-4.5,34,-117
55,-4.5,34.5,-117
55,-4.5,35,-108
55,-4.5,35.5,-108
55,-4.5,36,-99
55,-4.5,36.5,-99
55,-4.5,37,-90
55,-4.5,37.5,-90
55,-4.5,38,-80
55,-4.5,38.5,-80
55,-4.5,39,-74
55,-4.5,39.5,-74
55,-4.5,40,-64
55,-4.5,40.5,-64
55,-4.5,41,-54
55,-4.5,41.5,-54
55,-4.5,42,-43
55,-4.5,42.5,-43
55,-4.5,43,-36
55,-4.5,43.5,-36
55,-4.5,44,-25
55,-4.5,44.5,-25
55,-4.5,45,-13
55,-4.5,45.5,-13
55,-4.5,46,-2
55,-4.5,46.5,-2
55,-4.5,47,9
55,-4.5,47.5,9
55,-4.5,48,17
55,-4.5,48.5,17
55,-4.5,49,30
55,-4.5,49.5,30
55,-4.5,50,42
55,-4.5,50.5,42
55,-4.5,51,55
55,-4.5,51.5,55
55,-4.5,52,64
55,-4.5,52.5,64
55,-4.5,53,77
55,-4.5,53.5,77
55,-4.5,54,91
55,-4.5,54.5,91
55,-4.5,55,105
55,-4.5,55.5,105
55,-4.5,56,119
55,-4.5,56.5,119
55,-4.5,57,129
55,-4.5,57.5,129
55,-4.5,58,143
55,-4.5,58.5,143
55,-4.5,59,158
55,-4.5,59.5,158
55,-4.5,60,173
55,-4.5,60.5,173
55,-4,0,-252
55,-4,0.5,-221
55,-4,1,-221
55,-4,1.5,-221
55,-4,2,-221
55,-4,2.5,-221
55,-4,3,-221
55,-4,3.5,-221
55,-4,4,-220
55,-4,4.5,-220
55,-4,5,-219
55,-4,5.5,-219
55,-4,6,-217
55,-4,6.5,-217
55,-4,7,-216
55,-4,7.5,-216
55,-4,8,-214
55,-4,8.5,-214
55,-4,9,-212
55,-4,9.5,-212
55,-4,10,-210
55,-4,10.5,-210
55,-4,11,-207
55,-4,11.5,-207
55,-4,12,-205
55,-4,12.5,-205
55,-4,13,-202
55,-4,13.5,-202
55,-4,14,-198
55,-4,14.5,-198
55,-4,15,-195
55,-4,15.5,-195
55,-4,16,-192
55,-4,16.5,-192
55,-4,17,-188
55,-4,17.5,-188
55,-4,18,-183
55,-4,18.5,-183
55,-4,19,-179
55,-4,19.5,-179
55,-4,20,-174
55,-4,20.5,-174
55,-4,21,-170
55,-4,21.5,-170
55,-4,22,-165
55,-4,22.5,-165
55,-4,23,-159
55,-4,23.5,-159
55,-4,24,-153
55,-4,24.5,-153
55,-4,25,-149
55,-4,25.5,-149
55,-4,26,-142
55,-4,26.5,-142
55,-4,27,-135
55,-4,27.5,-135
55,-4,28,-128
55,-4,28.5,-128
55,-4,29,-121
55,-4,29.5,-121
55,-4,30,-116
55,-4,30.5,-116
55,-4,31,-108
55,-4,31.5,-108
55,-4,32,-100
55,-4,32.5,-100
55,-4,33,-92
55,-4,33.5,-92
55,-4,34,-86
55,-4,34.5,-86
55,-4,35,-78
55,-4,35.5,-78
55,-4,36,-68
55,-4,36.5,-68
55,-4,37,-59
55,-4,37.5,-59
55,-4,38,-50
55,-4,38.5,-50
55,-4,39,-43
55,-4,39.5,-43
55,-4,40,-33
55,-4,40.5,-33
55,-4,41,-23
55,-4,41.5,-23
55,-4,42,-12
55,-4,42.5,-12
55,-4,43,-5
55,-4,43.5,-5
55,-4,44,5
55,-4,44.5,5
55,-4,45,17
55,-4,45.5,17
55,-4,46,28
55,-4,46.5,28
55,-4,47,40
55,-4,47.5,40
55,-4,48,48
55,-4,48.5,48
55,-4,49,60
55,-4,49.5,60
55,-4,50,73
55,-4,50.5,73
55,-4,51,86
55,-4,51.5,86
55,-4,52,95
55,-4,52.5,95
55,-4,53,108
55,-4,53.5,108
55,-4,54,122
55,-4,54.5,122
55,-4,55,136
55,-4,55.5,136
55,-4,56,150
55,-4,56.5,150
55,-4,57,159
55,-4,57.5,159
55,-4,58,174
55,-4,58.5,174
55,-4,59,189
55,-4,59.5,189
55,-4,60,204
55,-4,60.5,204
55,-3.5,0,-191
55,-3.5,0.5,-191
55,-3.5,1,-190
55,-3.5,1.5,-190
55,-3.5,2,-190
55,-3.5,2.5,-190
55,-3.5,3,-190
55,-3.5,3.5,-190
55,-3.5,4,-189
55,-3.5,4.5,-189
55,-3.5,5,-188
55,-3.5,5.5,-188
55,-3.5,6,-186
55,-3.5,6.5,-186
55,-3.5,7,-185
55,-3.5,7.5,-185
55,-3.5,8,-183
55,-3.5,8.5,-183
55,-3.5,9,-181
55,-3.5,9.5,-181
55,-3.5,10,-179
55,-3.5,10.5,-179
55,-3.5,11,-176
55,-3.5,11.5,-176
55,-3.5,12,-174
55,-3.5,12.5,-174
55,-3.5,13,-171
55,-3.5,13.5,-171
55,-3.5,14,-167
55,-3.5,14.5,-167
55,-3.5,15,-164
55,-3.5,15.5,-164
55,-3.5,16,-161
55,-3.5,16.5,-161
55,-3.5,17,-157
55,-3.5,17.5,-157
55,-3.5,18,-152
55,-3.5,18.5,-152
55,-3.5,19,-148
55,-3.5,19.5,-148
55,-3.5,20,-143
55,-3.5,20.5,-143
55,-3.5,21,-139
55,-3.5,21.5,-139
55,-3.5,22,-134
55,-3.5,22.5,-134
55,-3.5,23,-128
55,-3.5,23.5,-128
55,-3.5,24,-122
55,-3.5,24.5,-122
55,-3.5,25,-118
55,-3.5,25.5,-118
55,-3.5,26,-111
55,-3.5,26.5,-111
55,-3.5,27,-105
55,-3.5,27.5,-105
55,-3.5,28,-98
55,-3.5,28.5,-98
55,-3.5,29,-90
55,-3.5,29.5,-90
55,-3.5,30,-85
55,-3.5,30.5,-85
55,-3.5,31,-77
55,-3.5,31.5,-77
55,-3.5,32,-69
55,-3.5,32.5,-69
55,-3.5,33,-61
55,-3.5,33.5,-61
55,-3.5,34,-55
55,-3.5,34.5,-55
55,-3.5,35,-47
55,-3.5,35.5,-47
55,-3.5,36,-38
55,-3.5,36.5,-38
55,-3.5,37,-28
55,-3.5,37.5,-28
55,-3.5,38,-19
55,-3.5,38.5,-19
55,-3.5,39,-12
55,-3.5,39.5,-12
55,-3.5,40,-2
55,-3.5,40.5,-2
55,-3.5,41,7
55,-3.5,41.5,7
55,-3.5,42,18
55,-3.5,42.5,18
55,-3.5,43,25
55,-3.5,43.5,25
55,-3.5,44,36
55,-3.5,44.5,36
55,-3.5,45,47
